-5.518449470400810242e-02,8.283924311399459839e-03,-5.624480918049812317e-02,-1.083549391478300095e-02,2.093984559178352356e-02,-6.354786455631256104e-03,3.118209540843963623e-02,-1.447489857673645020e-02,-5.129530280828475952e-02,-2.197125740349292755e-02,-5.809377133846282959e-02,-2.920921891927719116e-02,-1.884449273347854614e-02,-5.793828889727592468e-02,2.941521629691123962e-02,-1.051349751651287079e-02,4.410892724990844727e-04,-4.825434088706970215e-02,-2.477303892374038696e-02,5.429044365882873535e-02,5.812448449432849884e-03,3.026071935892105103e-02,-4.615522921085357666e-02,2.725261449813842773e-02,2.612797729671001434e-02,-6.872130185365676880e-02,-3.762983158230781555e-02,-7.174677401781082153e-02,2.271160669624805450e-02,-3.635308891534805298e-02,-1.670084707438945770e-02,-3.764510154724121094e-02,-1.618475466966629028e-02,-1.003692299127578735e-02,-1.993638277053833008e-02,-1.181157398968935013e-02,-3.273337706923484802e-02,-2.117326855659484863e-02,2.719643712043762207e-02,-5.096541717648506165e-02,6.108156591653823853e-02,7.489822804927825928e-03,1.485353708267211914e-02,-4.856635257601737976e-02,4.862969741225242615e-03,-1.938018202781677246e-02,-9.043559432029724121e-02,-3.416278213262557983e-02,-3.326098620891571045e-02,-7.903675734996795654e-02,3.012368828058242798e-02,-5.306885764002799988e-02,1.121392101049423218e-02,-4.160160198807716370e-02,-1.827381923794746399e-02,2.075424790382385254e-02,-3.747652471065521240e-02,3.992897272109985352e-02,5.209927260875701904e-02,-1.060181390494108200e-02,-7.254084572196006775e-03,-3.949088230729103088e-02,-3.425463289022445679e-02,-6.526279449462890625e-02,-2.199015766382217407e-02,-9.364344179630279541e-03,-5.218525230884552002e-02,-2.033355087041854858e-02,-1.621671766042709351e-02,-4.698114842176437378e-02,-1.042477507144212723e-02,-5.188055336475372314e-03,-2.344448119401931763e-02,-7.070146035403013229e-03,-8.104202896356582642e-02,-4.281257838010787964e-02,-1.839593052864074707e-03,-5.008302628993988037e-02,4.190535098314285278e-02,-4.022120684385299683e-02,-9.153062105178833008e-02,-1.024973671883344650e-02,-5.947735905647277832e-02,2.558640390634536743e-02,-3.215391933917999268e-02,6.066999584436416626e-02,-5.257570371031761169e-02,-3.729369491338729858e-02,-2.711304090917110443e-02,1.303853560239076614e-02,-1.112087815999984741e-02,3.228634595870971680e-03,-6.465017795562744141e-02,-3.957810252904891968e-02,5.314633250236511230e-02,4.932756721973419189e-02,2.729734219610691071e-02,-4.894776642322540283e-02,-4.531966894865036011e-02,-4.974522814154624939e-02,-6.135275587439537048e-02,-2.975719235837459564e-02,-5.092354118824005127e-02,1.240941882133483887e-02,-3.733398765325546265e-02,-8.952958881855010986e-02,-5.130539089441299438e-02,-4.647195711731910706e-02,-7.073044031858444214e-02,-2.939968556165695190e-02,-5.542400851845741272e-02,-6.116062402725219727e-03,5.486749112606048584e-03,-5.520495399832725525e-02,4.586055874824523926e-02,-3.000712022185325623e-02,-4.613409750163555145e-03,-3.379383683204650879e-02,-6.087116524577140808e-02,-3.592877089977264404e-02,-4.165925085544586182e-03,5.195437371730804443e-02,-5.680171027779579163e-02,1.130884396843612194e-03,-2.446857094764709473e-02,-5.188536643981933594e-02,1.429275423288345337e-02,-4.971913993358612061e-02,-3.656836599111557007e-02,4.680231213569641113e-04,-5.980063974857330322e-02,1.794773340225219727e-02,-3.279785811901092529e-02,-1.252125389873981476e-02,-4.551614820957183838e-02,3.789474442601203918e-02,5.291263759136199951e-02,-5.605924129486083984e-02,-3.543899953365325928e-02,2.805128693580627441e-02,-4.182700812816619873e-02,-4.665046185255050659e-02,2.370106801390647888e-02,-1.986648142337799072e-02,-2.458360977470874786e-02,-3.840758651494979858e-02,-2.231002599000930786e-02,4.582276195287704468e-02,-5.786602571606636047e-02,-2.850455790758132935e-02,-3.818286955356597900e-02,4.674437642097473145e-02,-7.228355109691619873e-02,4.586755484342575073e-02,-2.031646855175495148e-02,3.567744791507720947e-02,-5.762932449579238892e-02,1.904449425637722015e-02,-3.323315456509590149e-02,-9.064337611198425293e-02,-7.046528905630111694e-02,-1.455400884151458740e-02,-7.499078661203384399e-02,-1.629695296287536621e-02,-1.646576821804046631e-02,3.683685138821601868e-02,-1.836630143225193024e-02,3.536871820688247681e-02,-1.295290887355804443e-02,-7.995775667950510979e-04,-2.147615188732743263e-03,-8.500563353300094604e-02,-4.315130412578582764e-03,1.877412758767604828e-02,1.291766948997974396e-02,-1.820708438754081726e-02,-1.101581007242202759e-02,-1.606932259164750576e-03,1.111666858196258545e-02,-1.278636883944272995e-02,4.517143964767456055e-02,1.559884380549192429e-02,6.148710101842880249e-02,-7.512164115905761719e-02,-8.803749084472656250e-02,1.934038847684860229e-02,-4.625542461872100830e-02,7.468760013580322266e-03,-2.580556645989418030e-02,-4.015927761793136597e-02,4.883315414190292358e-02,3.137215971946716309e-03,-7.129448652267456055e-02,1.498006749898195267e-02,-1.686701178550720215e-02,-4.742644727230072021e-02,-3.853130713105201721e-02,-4.978261888027191162e-03,6.096681207418441772e-02,-4.690426215529441833e-02,-2.707639522850513458e-02,2.622076869010925293e-02,2.080687135457992554e-02,1.011414825916290283e-02,-8.018932491540908813e-02,-5.440984293818473816e-02,3.695655986666679382e-02,3.027840703725814819e-02,6.018538028001785278e-02,-8.245791494846343994e-02,1.492226682603359222e-02,-5.973035842180252075e-02,-2.744505368173122406e-02,-5.897398665547370911e-02,6.048181653022766113e-02,-5.760230123996734619e-02,-3.129392862319946289e-04,-3.611743450164794922e-02,3.884423524141311646e-02,-1.090413890779018402e-02,-8.028895407915115356e-02,2.295699715614318848e-02,-6.477043032646179199e-02,-8.313949406147003174e-02,-1.073045376688241959e-02,1.134551316499710083e-02,5.992190539836883545e-02,5.104347132146358490e-03,1.041671913117170334e-02,-3.843902423977851868e-02,2.195187658071517944e-02,6.016960740089416504e-02,-7.672215253114700317e-02,5.799010396003723145e-03,-3.920535370707511902e-02,2.713081240653991699e-02,-7.461858540773391724e-02,4.816056694835424423e-03,-7.538394629955291748e-02,-3.297718614339828491e-02,-6.074754148721694946e-02,4.793368279933929443e-03,-3.419016301631927490e-02,-6.250226404517889023e-03,-4.315805062651634216e-02,-1.093227416276931763e-02,-2.700418233871459961e-02,-2.866438589990139008e-02,-2.657349593937397003e-02,-5.773909389972686768e-02,-2.358082868158817291e-02,2.277749031782150269e-02,-3.148426488041877747e-02,9.263265877962112427e-03,3.097506612539291382e-02,-7.548300176858901978e-02
-6.272530555725097656e-02,-3.949562087655067444e-02,-1.870910078287124634e-02,-2.743182145059108734e-02,4.709572345018386841e-02,-5.506987124681472778e-02,-3.646866977214813232e-02,-5.935242399573326111e-02,-2.650947123765945435e-02,-5.643996968865394592e-02,-1.447911281138658524e-02,-2.671676501631736755e-02,-6.927040405571460724e-03,-4.865991696715354919e-02,-4.379441589117050171e-02,1.840815879404544830e-02,4.573698714375495911e-02,-6.680367887020111084e-02,-6.826376914978027344e-02,5.952746421098709106e-02,-4.561408236622810364e-02,-1.614057458937168121e-02,-3.406362235546112061e-02,-4.936532303690910339e-02,-5.703104287385940552e-02,-8.140601217746734619e-02,-2.331820130348205566e-02,-8.526074886322021484e-02,-1.978925801813602448e-02,-8.130230009555816650e-02,-3.176993504166603088e-02,-7.120078057050704956e-02,1.138013880699872971e-02,2.571922959759831429e-03,-3.394305706024169922e-02,-9.154088050127029419e-02,-5.186150968074798584e-02,-6.539179384708404541e-02,-6.902880966663360596e-03,-3.228025883436203003e-02,1.272936910390853882e-02,-6.303529441356658936e-02,5.859960615634918213e-02,-6.890886276960372925e-02,-5.290969088673591614e-02,-7.002576440572738647e-02,-1.633491367101669312e-02,-2.740333229303359985e-02,2.225480973720550537e-02,-6.486587971448898315e-02,1.487052533775568008e-02,-7.593996822834014893e-02,1.960418745875358582e-02,-2.538541331887245178e-02,2.469133585691452026e-02,-3.020259737968444824e-02,-3.630705177783966064e-03,6.150543922558426857e-04,-5.826728790998458862e-02,-2.131827175617218018e-03,-1.755785197019577026e-02,4.292054567486047745e-03,-7.332067005336284637e-03,-6.551345437765121460e-02,1.513642817735671997e-02,1.118532381951808929e-02,-2.676045522093772888e-02,5.114849656820297241e-02,-5.195580795407295227e-02,1.278984546661376953e-02,-7.398979365825653076e-02,4.660682380199432373e-02,-4.939914867281913757e-02,-1.741408929228782654e-02,-5.777099728584289551e-02,-6.705623120069503784e-02,-6.007965654134750366e-02,-2.665390446782112122e-02,-2.315465733408927917e-02,-4.719477146863937378e-02,-2.776943333446979523e-02,5.293052643537521362e-03,-4.920917749404907227e-02,-2.216169983148574829e-02,-2.575872652232646942e-02,-7.704032957553863525e-02,-5.089000985026359558e-02,-4.746702313423156738e-02,-2.267479896545410156e-03,2.074561268091201782e-02,-4.049589112401008606e-02,-3.725657612085342407e-02,-5.483690183609724045e-03,-2.745602652430534363e-02,-1.567982137203216553e-02,3.874592483043670654e-02,-5.462544411420822144e-02,-4.707016795873641968e-02,-6.196090579032897949e-02,2.759063802659511566e-02,1.418330520391464233e-02,-3.688134998083114624e-02,-3.906814381480216980e-02,-3.400042653083801270e-02,-8.143779635429382324e-02,2.321089804172515869e-02,-4.059184715151786804e-02,-4.909671843051910400e-04,6.435975432395935059e-03,-2.468876540660858154e-02,-2.412911877036094666e-02,-5.110431462526321411e-02,1.850907504558563232e-02,-4.423530772328376770e-04,5.183355510234832764e-02,-3.228471055626869202e-02,-3.995642438530921936e-02,-5.367746949195861816e-02,9.851989336311817169e-03,-5.929128825664520264e-02,5.280409753322601318e-02,2.614570222795009613e-02,-3.475225716829299927e-02,-1.332185324281454086e-02,-7.690364494919776917e-03,-5.726038664579391479e-02,-3.172400593757629395e-02,4.993133246898651123e-02,-6.529833376407623291e-02,1.264752540737390518e-02,-4.038175940513610840e-02,1.061432063579559326e-02,2.116183377802371979e-02,-3.388730064034461975e-02,4.395079240202903748e-02,-6.663390249013900757e-02,-5.277771130204200745e-02,4.708604887127876282e-03,2.107866294682025909e-02,2.027845382690429688e-02,-5.311544239521026611e-02,-8.547329157590866089e-02,-8.811843395233154297e-02,-4.257600754499435425e-02,4.181320965290069580e-02,-9.137544780969619751e-02,3.560954332351684570e-02,3.700509434565901756e-03,-1.764871552586555481e-02,2.098653838038444519e-02,8.812887594103813171e-03,-1.813589781522750854e-02,4.180267453193664551e-03,-7.077272981405258179e-02,-6.028317660093307495e-02,4.432928562164306641e-02,-8.710750192403793335e-02,4.407276213169097900e-02,-1.737233437597751617e-02,1.806928217411041260e-02,4.571119323372840881e-02,-6.050457060337066650e-02,1.815660111606121063e-02,-6.283445656299591064e-02,6.462742574512958527e-03,-2.247780561447143555e-02,-5.049243569374084473e-02,-6.692764163017272949e-02,-1.209887396544218063e-02,-4.231360927224159241e-02,-1.189927756786346436e-02,3.178930655121803284e-02,-8.676724880933761597e-02,-2.293059229850769043e-02,-2.983569912612438202e-02,-2.120819874107837677e-02,-8.337702602148056030e-02,-7.370739430189132690e-02,-1.744762621819972992e-02,-1.025064662098884583e-01,-4.853920638561248779e-02,2.104366384446620941e-02,4.461714625358581543e-02,1.944780908524990082e-02,-4.964280501008033752e-02,3.186121210455894470e-02,5.003642290830612183e-02,-5.693259090185165405e-02,-3.800222650170326233e-02,3.832811862230300903e-02,-6.916770339012145996e-02,4.390887171030044556e-02,5.709522962570190430e-02,1.809072121977806091e-02,1.423362269997596741e-02,-4.490479081869125366e-02,-1.441423594951629639e-02,-2.309956401586532593e-02,-3.430309519171714783e-02,-2.367429551668465137e-04,5.806016921997070312e-02,-3.167159855365753174e-03,4.730217903852462769e-02,2.762957662343978882e-02,-4.712333157658576965e-02,-3.271279856562614441e-02,-3.909856081008911133e-02,-1.381715293973684311e-02,-5.244004726409912109e-02,8.559271693229675293e-03,-2.270489372313022614e-02,-6.067637726664543152e-02,5.537340790033340454e-02,-5.567101761698722839e-02,7.036477327346801758e-04,1.126810908317565918e-02,1.864816248416900635e-02,5.513910204172134399e-02,1.954295299947261810e-02,-1.590516301803290844e-03,7.767704315483570099e-03,1.967848837375640869e-02,2.411575615406036377e-02,1.328681036829948425e-02,-3.051789710298180580e-03,3.445503860712051392e-02,3.123180009424686432e-02,2.832152508199214935e-02,1.727303862571716309e-02,1.380395889282226562e-02,4.392145667225122452e-03,1.169998012483119965e-02,-6.454994436353445053e-03,-3.046755865216255188e-02,-6.947696954011917114e-02,-3.843076527118682861e-03,-4.285036027431488037e-02,-2.133175730705261230e-02,-2.736984752118587494e-02,2.019057050347328186e-03,-4.773976653814315796e-02,5.142828822135925293e-02,-3.893340006470680237e-02,1.739766076207160950e-02,1.695775426924228668e-02,-1.942382380366325378e-02,-2.473340183496475220e-02,-6.051415205001831055e-02,2.004658989608287811e-02,-2.210680581629276276e-02,-5.688910186290740967e-02,-3.183181583881378174e-02,-4.276420548558235168e-02,3.215985372662544250e-02,4.579997807741165161e-02,1.377281732857227325e-02
-7.395858168601989746e-01,3.796143233776092529e-01,-1.321203708648681641e+00,-5.829949975013732910e-01,-1.446365594863891602e+00,1.225031971931457520e+00,3.315775692462921143e-01,1.552834808826446533e-01,5.249751806259155273e-01,-3.784850835800170898e+00,7.188580930233001709e-02,-6.542171835899353027e-01,-2.272932678461074829e-01,-1.101464778184890747e-01,1.114645361900329590e+00,-2.152402400970458984e+00,-1.324653506278991699e+00,-8.572217226028442383e-01,-5.211327552795410156e+00,1.649017691612243652e+00,5.979521870613098145e-01,-1.368262887001037598e+00,4.836685955524444580e-02,-8.402029275894165039e-01,-5.307681858539581299e-02,5.961278080940246582e-01,7.430552244186401367e-01,-3.508699655532836914e+00,1.134398952126502991e-01,-5.115172266960144043e-02,-1.077695012092590332e+00,-2.498256206512451172e+00,-3.501522541046142578e+00,1.098067283630371094e+00,2.302069187164306641e+00,5.443450808525085449e-01,-9.515994191169738770e-01,-2.680277585983276367e+00,1.094282120466232300e-01,1.434607863426208496e+00,-1.097224885597825050e-03,1.437606096267700195e+00,-6.058097630739212036e-02,4.114931523799896240e-01,1.303125619888305664e-01,2.250844538211822510e-01,-5.575358867645263672e-02,1.230910658836364746e+00,-3.801591396331787109e-01,2.285482287406921387e-01,-1.472205400466918945e+00,-5.611900687217712402e-01,-2.637316226959228516e+00,-6.186707615852355957e-01,3.767498433589935303e-01,-3.576617956161499023e+00,-5.214295983314514160e-01,-8.284149318933486938e-02,-2.265429019927978516e+00,1.009414672851562500e+00,1.323734164237976074e+00,2.989980876445770264e-01,4.192346036434173584e-01,-4.801451265811920166e-01,-3.528566360473632812e+00,5.067392587661743164e-01,1.639026403427124023e+00,-2.270350009202957153e-01,1.771154165267944336e+00,4.654650017619132996e-02,1.045988082885742188e+00,-7.103483676910400391e+00,-9.510951042175292969e-01,7.188639640808105469e-01,-1.082690238952636719e+01,1.343457102775573730e+00,3.658221483230590820e+00,1.016520485281944275e-01,2.798536062240600586e+00,-3.704766988754272461e+00,-1.152087092399597168e+00,1.069384932518005371e+00,-2.405461502075195312e+01,-8.822813630104064941e-02,2.370041131973266602e+00,-4.639788866043090820e-01,-7.970739603042602539e-01,-1.817252397537231445e+00,-3.317796707153320312e+00,8.499872684478759766e-01,-4.509012997150421143e-01,-7.284329831600189209e-02,1.261472582817077637e+00,-2.026257324218750000e+01,1.698716759681701660e+00,8.288390636444091797e-01,8.329229950904846191e-01,1.909477233886718750e+00,6.480759382247924805e-01,-7.475735247135162354e-02,-1.647861242294311523e+00,2.487514734268188477e+00,7.276835441589355469e-01,1.133859992027282715e+00,3.232827484607696533e-01,-1.221005725860595703e+01,-4.818963408470153809e-01,-9.132860898971557617e-01,-1.192831277847290039e+00,-1.554936408996582031e+00,5.822188258171081543e-01,4.680979728698730469e+00,-4.053913652896881104e-01,6.715288162231445312e-01,1.337440609931945801e+00,1.546330809593200684e+00,7.463551312685012817e-02,5.286110043525695801e-01,3.737808763980865479e-01,-8.026611208915710449e-01,-3.109489440917968750e+00,-9.342752456665039062e+00,-6.268577098846435547e+00,-8.945619314908981323e-02,-1.252340674400329590e-01,-3.230476140975952148e+00,1.811715364456176758e+00,-4.590726375579833984e+00,4.700850844383239746e-01,2.179436206817626953e+00,1.971799731254577637e+00,-4.539561271667480469e+00,2.138054370880126953e+00,8.549941778182983398e-01,-3.693119585514068604e-01,9.381096065044403076e-02,-9.126794338226318359e-01,-1.527502089738845825e-01,1.682118415832519531e+00,7.491581439971923828e-01,-2.100873947143554688e+00,6.620354652404785156e-01,2.129080295562744141e+00,-7.397022843360900879e-01,1.079501867294311523e+00,9.229435324668884277e-01,8.131198287010192871e-01,2.521553933620452881e-01,-5.744555950164794922e+00,5.220368504524230957e-01,1.181752562522888184e+00,2.652194499969482422e+00,4.904774427413940430e-01,-1.016634941101074219e+00,1.810709118843078613e+00,-1.081755161285400391e+00,4.060733318328857422e-01,2.361850887537002563e-01,-8.711809664964675903e-02,-2.766614556312561035e-01,-1.489610314369201660e+00,9.058411121368408203e-01,-3.527805805206298828e-01,-8.600030839443206787e-02,-4.298178553581237793e-01,1.752255082130432129e+00,-4.260441780090332031e+00,-2.197748661041259766e+00,-3.288305521011352539e+00,1.074188470840454102e+00,-8.618773818016052246e-01,1.149158358573913574e+00,-4.971249103546142578e+00,-1.862130641937255859e+00,-2.677386283874511719e+00,8.512647747993469238e-01,2.637518346309661865e-01,1.856070876121520996e+00,3.825490474700927734e-01,2.037990540266036987e-01,2.611706554889678955e-01,-9.094175696372985840e-02,-2.792506217956542969e+00,1.352009624242782593e-01,1.302447199821472168e+00,-8.613692224025726318e-02,-7.020352780818939209e-02,-1.716790795326232910e-01,1.443450570106506348e+00,-1.637797713279724121e+00,1.477309584617614746e+00,-2.270051002502441406e+00,3.284919261932373047e-01,2.394335716962814331e-01,2.644315659999847412e-01,-1.573940753936767578e+00,2.526674509048461914e+00,2.898830175399780273e-01,1.342016011476516724e-01,-4.221645891666412354e-01,-2.174716889858245850e-01,3.703075349330902100e-01,1.755641579627990723e+00,-3.403002321720123291e-01,-2.506938278675079346e-01,-2.463612556457519531e+00,2.244058132171630859e+00,2.257966995239257812e-01,-1.951105892658233643e-01,1.061546444892883301e+00,2.219127655029296875e+00,-6.026645898818969727e-01,1.694109439849853516e+00,7.510730996727943420e-03,-4.834221363067626953e+00,-2.049099683761596680e+00,2.386605292558670044e-01,-2.324499845504760742e+00,9.501025676727294922e-01,-2.202146053314208984e+00,-1.876668334007263184e+00,1.231825351715087891e+00,8.055676519870758057e-02,-2.859433412551879883e+00,-1.526995420455932617e+00,-5.258790969848632812e+00,1.642665266990661621e-01,-1.906927108764648438e+00,-1.418324470520019531e+00,-6.266040802001953125e-01,-1.483804821968078613e+00,3.275548517704010010e-01,-5.225714668631553650e-02,7.736654281616210938e-01,9.820147752761840820e-01,4.571219086647033691e-01,-1.765195250511169434e+00,2.558221340179443359e+00,-5.063548088073730469e-01,-1.395116686820983887e+00,1.711279630661010742e+00,1.898727059364318848e+00,1.286271572113037109e+00,-1.038830995559692383e+00,2.512204647064208984e-01,-6.687946915626525879e-01,-7.146197557449340820e-02,-4.380776405334472656e+00,5.298308134078979492e-01,2.229501754045486450e-01,-8.487610816955566406e-01,-8.182361721992492676e-01,-3.192021846771240234e-01,-8.988806605339050293e-01,-2.279225111007690430e+00,2.906360626220703125e+00
-9.075617045164108276e-02,4.047656897455453873e-03,-8.185623586177825928e-02,-6.317737698554992676e-02,-1.088273338973522186e-02,-5.790574848651885986e-02,-6.982132792472839355e-03,-5.469719693064689636e-02,2.125759422779083252e-02,-7.295310497283935547e-02,-2.114998549222946167e-02,3.562657861039042473e-03,-5.181072652339935303e-02,-2.370100840926170349e-02,-5.022382363677024841e-02,-8.974917232990264893e-03,1.362621784210205078e-02,1.856343448162078857e-02,3.358820453286170959e-02,5.025383830070495605e-02,-4.239022091496735811e-04,-3.228233195841312408e-03,2.851243689656257629e-02,8.709430694580078125e-03,-6.666573137044906616e-02,-2.195839956402778625e-02,-6.899622827768325806e-02,-7.374343276023864746e-02,-9.132529795169830322e-02,1.566412299871444702e-02,3.650014847517013550e-02,3.541089594364166260e-03,2.226377651095390320e-02,1.496815681457519531e-02,9.217776358127593994e-03,1.097845379263162613e-02,-1.420236099511384964e-02,-1.357387518510222435e-03,-1.379556208848953247e-02,-3.779101883992552757e-03,-4.698838293552398682e-02,2.704211976379156113e-03,1.303619146347045898e-02,-4.220033437013626099e-02,-5.800707265734672546e-02,-6.949405372142791748e-02,-2.605019835755228996e-03,-1.859617419540882111e-02,-6.039414554834365845e-02,-2.531125396490097046e-02,5.677853524684906006e-02,-1.661484502255916595e-02,1.844692789018154144e-02,-8.851238340139389038e-02,-6.052496284246444702e-02,2.418424375355243683e-02,-5.379015579819679260e-02,-1.620731689035892487e-02,-3.147990256547927856e-02,-4.422122612595558167e-03,-3.241255134344100952e-02,-9.277190268039703369e-02,-3.649143129587173462e-02,-6.986395269632339478e-02,-4.275634884834289551e-03,1.363737042993307114e-02,-6.853432953357696533e-02,-1.506379991769790649e-02,2.298391610383987427e-02,-3.349976241588592529e-02,1.612712442874908447e-02,-5.897398665547370911e-02,-4.940513893961906433e-02,-2.339243888854980469e-02,-2.865968085825443268e-02,-1.385046541690826416e-02,-7.613562047481536865e-03,3.490179032087326050e-02,5.781644955277442932e-03,-2.500699460506439209e-02,-5.910428985953330994e-02,-4.564563557505607605e-02,-3.426541015505790710e-02,-5.670120567083358765e-02,5.555507540702819824e-02,-6.596041470766067505e-02,-7.204546034336090088e-02,-7.170677185058593750e-02,1.845918595790863037e-02,-5.080109089612960815e-02,2.103316038846969604e-02,1.733779907226562500e-02,-3.751388192176818848e-02,-6.101753190159797668e-02,-2.202332578599452972e-02,5.140603333711624146e-02,-3.778440877795219421e-02,1.891882903873920441e-02,1.179442554712295532e-02,2.072368562221527100e-02,-6.281646341085433960e-02,-3.379447758197784424e-02,-5.084827169775962830e-02,-5.002170801162719727e-02,2.907750010490417480e-02,-1.350425742566585541e-02,-4.374999552965164185e-02,2.835512161254882812e-03,-3.460454195737838745e-02,4.058201611042022705e-02,-3.869805485010147095e-02,4.219330102205276489e-02,-8.141145110130310059e-03,-5.343645811080932617e-02,-5.081599205732345581e-02,-2.367735281586647034e-02,4.334715008735656738e-02,-3.949658572673797607e-02,-7.914772140793502331e-04,-5.571991950273513794e-02,9.457511827349662781e-03,-6.167263537645339966e-02,-6.020051427185535431e-03,-2.310502156615257263e-02,2.211853861808776855e-03,3.040529787540435791e-03,6.167997419834136963e-02,-5.693666636943817139e-02,-7.084588706493377686e-02,-1.141053438186645508e-02,-3.862147033214569092e-02,-5.695700272917747498e-02,-6.392377614974975586e-02,-5.365099757909774780e-02,3.860160708427429199e-02,3.029928356409072876e-02,-4.062160849571228027e-03,-1.517306268215179443e-02,2.921678684651851654e-02,1.266468025278300047e-04,2.361302636563777924e-02,-4.388236999511718750e-02,-1.360136736184358597e-02,1.468340307474136353e-02,-7.577057182788848877e-02,-8.565488457679748535e-02,-1.874480769038200378e-02,-2.612381055951118469e-02,-2.828382328152656555e-02,1.681733410805463791e-03,-5.091095715761184692e-02,5.485184490680694580e-03,-2.237144671380519867e-02,1.850789040327072144e-02,-1.724592410027980804e-02,1.085101068019866943e-02,-3.558104857802391052e-02,-3.260444104671478271e-02,-3.646982833743095398e-02,-6.784723955206573009e-04,-2.976090274751186371e-02,-5.233313888311386108e-02,-1.783773861825466156e-02,4.271157085895538330e-03,2.444162219762802124e-02,3.059825114905834198e-02,-1.663197576999664307e-02,1.410679426044225693e-02,-7.466921955347061157e-02,-1.298891659826040268e-02,-3.994896635413169861e-02,-8.405063301324844360e-02,-1.778932660818099976e-02,-4.148984327912330627e-02,1.416191831231117249e-02,-6.207695230841636658e-02,6.126832962036132812e-02,-6.186026334762573242e-02,3.547008708119392395e-02,-1.329628005623817444e-02,2.146535366773605347e-02,-2.126028947532176971e-02,2.672411315143108368e-02,-7.854453474283218384e-02,-9.135326743125915527e-02,4.602902755141258240e-02,4.949767142534255981e-02,-6.341414898633956909e-02,-8.098513633012771606e-02,-1.056461781263351440e-02,1.412313431501388550e-02,-9.524763561785221100e-03,1.764520071446895599e-02,3.989451378583908081e-02,-2.696621417999267578e-02,5.250312015414237976e-02,-5.408664792776107788e-02,-3.371229767799377441e-02,-8.339574560523033142e-03,-5.201090499758720398e-02,-7.412627339363098145e-03,1.261807978153228760e-03,4.868698865175247192e-02,1.986066251993179321e-02,4.714888986200094223e-03,-7.519731670618057251e-02,-4.031573235988616943e-02,-4.227454960346221924e-02,-5.734354257583618164e-02,-8.126483112573623657e-02,-1.139312051236629486e-02,-1.053717732429504395e-02,1.927773281931877136e-02,-2.497554197907447815e-02,-1.452556997537612915e-02,-5.536890029907226562e-02,1.028668135404586792e-02,-3.127086162567138672e-02,-4.747921973466873169e-02,-5.825093761086463928e-02,-2.543827332556247711e-02,3.926377743482589722e-02,5.507782101631164551e-02,-4.831652343273162842e-02,2.831047400832176208e-03,-7.794575393199920654e-02,5.513783544301986694e-02,-7.057884335517883301e-02,-4.611006006598472595e-02,2.388291992247104645e-02,-1.494196802377700806e-02,4.984422773122787476e-02,-6.546691805124282837e-02,-4.148301109671592712e-02,-2.524987561628222466e-03,1.303934026509523392e-02,-4.684261977672576904e-02,-7.517466694116592407e-02,-6.480906903743743896e-02,-2.992437593638896942e-02,-4.436626285314559937e-02,1.081155240535736084e-02,-1.204486377537250519e-02,-6.420511007308959961e-02,-2.186253666877746582e-02,3.293215483427047729e-02,4.811325296759605408e-02,-2.713736891746520996e-02,-5.127350613474845886e-02,5.164750851690769196e-03,-3.721386194229125977e-02,-7.878169417381286621e-03,4.434892535209655762e-02,-3.443407639861106873e-02,-2.127318829298019409e-02,-7.064778357744216919e-02
-3.678845614194869995e-02,-2.865104377269744873e-02,2.616275101900100708e-02,-3.883388638496398926e-02,-3.357921168208122253e-02,4.078152775764465332e-02,-7.541521638631820679e-02,-3.039508871734142303e-02,1.704174838960170746e-02,2.342174947261810303e-02,-4.691446945071220398e-02,2.431360632181167603e-02,-5.121926963329315186e-02,3.252886235713958740e-02,-3.417487069964408875e-02,-5.155131593346595764e-02,-4.184741526842117310e-02,-1.584834419190883636e-02,2.295838436111807823e-03,2.197657898068428040e-02,-2.906993962824344635e-02,-1.217965409159660339e-01,-4.394759237766265869e-02,3.633670508861541748e-02,-5.280681326985359192e-02,-6.435091048479080200e-02,3.523138165473937988e-02,-4.000053554773330688e-02,-1.168322265148162842e-01,-7.425649464130401611e-02,1.103192567825317383e-02,-5.508272349834442139e-02,-1.665358990430831909e-02,-8.682603947818279266e-03,-3.304728120565414429e-02,5.041319411247968674e-03,-3.291504457592964172e-02,-3.825914487242698669e-02,-1.424408331513404846e-02,-9.417470544576644897e-02,2.274237573146820068e-03,-4.701940715312957764e-02,3.413096070289611816e-02,-1.032238081097602844e-02,-9.985617548227310181e-02,1.915988326072692871e-02,-9.908177703619003296e-02,-5.636208504438400269e-02,-3.909377753734588623e-02,-1.155161205679178238e-02,-9.115890413522720337e-02,-7.059402763843536377e-02,-2.787771821022033691e-02,-7.261159364134073257e-03,-2.393902651965618134e-02,-1.764112338423728943e-02,-8.273779600858688354e-02,-7.011619210243225098e-02,4.358876869082450867e-02,-4.465079680085182190e-02,-1.003703922033309937e-01,-6.037113070487976074e-02,-6.146280094981193542e-02,-4.650168865919113159e-02,2.338653057813644409e-02,-4.470921307802200317e-02,-6.190804392099380493e-02,-8.186578005552291870e-02,-4.932858422398567200e-02,1.128767896443605423e-02,-3.138415887951850891e-02,-1.652926765382289886e-02,-1.939691603183746338e-02,-5.603215470910072327e-02,4.461174830794334412e-03,-8.111420273780822754e-02,2.782450616359710693e-02,-8.101420104503631592e-02,6.213692575693130493e-02,-4.550552740693092346e-02,-3.412336856126785278e-02,-1.364989131689071655e-01,-1.171013154089450836e-02,1.247735880315303802e-02,-3.183614462614059448e-02,-3.428904339671134949e-02,-5.939251556992530823e-02,-1.056985035538673401e-01,2.159296162426471710e-02,-4.425578564405441284e-02,-4.929200187325477600e-02,-9.657341986894607544e-02,-1.223064512014389038e-01,-4.279930144548416138e-02,-3.774189203977584839e-02,1.552485022693872452e-02,-5.349637567996978760e-02,1.869903691112995148e-02,-3.557127341628074646e-02,-7.072937488555908203e-02,1.762498542666435242e-02,-7.776638120412826538e-02,-7.951626926660537720e-02,1.800451427698135376e-02,-1.289837807416915894e-01,1.665685442276299000e-03,-8.264025300741195679e-02,2.022077143192291260e-02,-3.548859432339668274e-02,4.499129951000213623e-02,-1.004793588072061539e-02,5.569680780172348022e-02,-3.801113367080688477e-02,-1.726223900914192200e-02,-3.582462668418884277e-02,7.331863744184374809e-04,-9.375727921724319458e-02,-8.281804621219635010e-02,7.639743387699127197e-03,5.853107571601867676e-02,-5.039506405591964722e-02,-9.542420506477355957e-02,-4.145008325576782227e-02,1.482866064179688692e-04,-1.215000972151756287e-01,4.388302564620971680e-03,1.145207602530717850e-02,2.838553488254547119e-02,-4.888924956321716309e-02,-3.857222571969032288e-02,2.572361193597316742e-02,-6.753479689359664917e-02,-6.026430428028106689e-02,-9.854843840003013611e-03,-1.057822927832603455e-01,3.297786414623260498e-02,-1.045952215790748596e-01,-4.124905169010162354e-02,-6.418060511350631714e-02,1.342808268964290619e-02,2.864502370357513428e-02,-7.142325490713119507e-02,-6.013613566756248474e-02,5.209190398454666138e-02,-5.906308814883232117e-02,-1.492545194923877716e-02,1.949598640203475952e-02,-7.597419619560241699e-02,-8.023175597190856934e-02,-7.020445913076400757e-02,-5.124494433403015137e-02,-3.964827395975589752e-03,-5.785804241895675659e-02,-9.263508766889572144e-02,-1.520518492907285690e-02,2.559834718704223633e-02,-5.831384286284446716e-02,6.990330759435892105e-03,-1.615527784451842308e-03,-3.900011943187564611e-04,-7.857558876276016235e-02,-7.157202810049057007e-02,-2.656033821403980255e-02,-5.937854945659637451e-02,-1.159313693642616272e-01,5.016529187560081482e-02,3.353137522935867310e-02,-8.392835967242717743e-03,-8.830692619085311890e-03,-5.212878435850143433e-02,1.734052412211894989e-02,-1.507488545030355453e-02,-6.681312620639801025e-02,-3.685878962278366089e-02,2.510658279061317444e-02,-1.251718103885650635e-01,4.640020895749330521e-03,-2.013386227190494537e-02,-5.214852094650268555e-02,-6.188318505883216858e-02,-4.113500192761421204e-02,3.495776653289794922e-02,1.471036020666360855e-02,-2.070998214185237885e-02,-9.098201245069503784e-02,-7.839146070182323456e-03,-4.020959883928298950e-02,4.039032384753227234e-02,-4.887749254703521729e-02,-2.177162095904350281e-02,-7.949782162904739380e-02,8.144635707139968872e-03,-7.958987355232238770e-02,1.887674257159233093e-02,3.004822880029678345e-02,-1.249879691749811172e-02,-9.115987271070480347e-02,-1.164736598730087280e-01,-4.241706430912017822e-02,-8.292220532894134521e-02,-2.624036185443401337e-02,-6.057325005531311035e-02,6.066288053989410400e-02,-1.109257712960243225e-02,-1.334915906190872192e-01,-4.783350974321365356e-02,-2.163303270936012268e-02,-7.787889242172241211e-02,4.286244511604309082e-02,4.341406747698783875e-02,-9.577774256467819214e-02,-3.215377032756805420e-02,-4.004667699337005615e-02,3.066304326057434082e-02,-3.104266338050365448e-02,9.082075208425521851e-03,-7.730884850025177002e-02,5.553845316171646118e-02,-4.434987530112266541e-02,-1.332076787948608398e-01,-1.149359047412872314e-01,1.723885536193847656e-02,-6.417334079742431641e-03,-1.189263239502906799e-01,-2.649750001728534698e-02,-3.597058728337287903e-02,-1.323376223444938660e-02,-2.169229410355910659e-04,-3.835190087556838989e-02,-3.285426646471023560e-02,-4.936014860868453979e-02,-4.588923603296279907e-02,-1.127125695347785950e-01,-1.090123355388641357e-01,-4.339332133531570435e-02,-1.883703097701072693e-02,-3.215784952044487000e-02,-5.339034274220466614e-02,-1.092092227190732956e-02,-6.853493303060531616e-02,2.599831670522689819e-02,-5.838960036635398865e-02,-3.948461636900901794e-02,-5.135217308998107910e-02,-1.046337559819221497e-01,-8.079900592565536499e-02,-4.498518630862236023e-02,-2.769334614276885986e-02,-8.333389461040496826e-02,-3.934327140450477600e-02,-9.396902471780776978e-02,-2.345566451549530029e-02,-2.294927835464477539e-04,-5.468534305691719055e-02,8.526071906089782715e-04,-5.263281986117362976e-02
-3.546662032604217529e-01,-3.998246490955352783e-01,4.711136966943740845e-02,-2.582284212112426758e-01,-5.266110599040985107e-02,-5.706769973039627075e-02,3.102050721645355225e-01,-9.059076011180877686e-02,4.527015984058380127e-02,-5.300391912460327148e-01,5.743443593382835388e-02,3.279227018356323242e-01,4.339191690087318420e-02,-2.096094340085983276e-01,-1.364737749099731445e-02,-1.093949005007743835e-01,7.866210490465164185e-02,3.991151228547096252e-02,-2.129007279872894287e-01,-2.253582514822483063e-02,-3.710466921329498291e-01,1.428174525499343872e-01,7.094047218561172485e-02,2.912480570375919342e-02,-4.484081175178289413e-03,-2.203975915908813477e-01,-3.128367066383361816e-01,-2.015760689973831177e-01,-1.742803454399108887e-01,-7.861074805259704590e-02,-5.439865961670875549e-02,-9.531420469284057617e-02,-5.903088301420211792e-02,-2.397247403860092163e-02,-3.565276414155960083e-02,-3.812393844127655029e-01,-4.096062779426574707e-01,-2.191303521394729614e-01,2.978593707084655762e-01,-3.507012724876403809e-01,1.857695728540420532e-02,9.400538355112075806e-02,4.764234274625778198e-02,-1.254938244819641113e-01,-3.582629263401031494e-01,6.644090265035629272e-02,-1.612572371959686279e-01,2.836250513792037964e-02,-1.077748835086822510e-03,-2.001708596944808960e-01,-1.333259344100952148e-01,-2.482556104660034180e-01,-1.465649008750915527e-01,-1.067270487546920776e-01,-3.895684778690338135e-01,3.152975142002105713e-01,-2.321175038814544678e-01,9.702122956514358521e-02,3.054639995098114014e-01,-2.806372344493865967e-01,6.646504160016775131e-03,-6.915828585624694824e-02,-1.268525123596191406e-01,-2.632616758346557617e-01,1.337614655494689941e-01,-1.154055967926979065e-01,-3.491159975528717041e-01,7.847284525632858276e-02,1.621509902179241180e-02,5.570312030613422394e-03,-6.023705005645751953e-03,6.032093241810798645e-02,-3.514400720596313477e-01,-1.128971390426158905e-02,-1.460210233926773071e-01,6.847396958619356155e-03,1.184899508953094482e-01,-1.387099325656890869e-01,-1.521047800779342651e-01,-1.783378124237060547e-01,-3.519858419895172119e-01,-1.571246981620788574e-01,2.544817328453063965e-02,2.918685376644134521e-01,-2.337910085916519165e-01,-8.243280649185180664e-02,-1.247278377413749695e-01,-7.325015962123870850e-02,-1.150266267359256744e-02,-1.203977838158607483e-01,-1.198555305600166321e-01,4.411470517516136169e-02,-2.283783853054046631e-01,1.592225581407546997e-01,7.864198833703994751e-02,3.700932487845420837e-02,-4.771717637777328491e-02,-3.837625980377197266e-01,1.738747656345367432e-01,-4.445477128028869629e-01,-1.585695296525955200e-01,-3.458668887615203857e-01,-1.250336617231369019e-01,-3.862039148807525635e-01,-1.575195044279098511e-01,-1.836308985948562622e-01,-2.499660700559616089e-01,1.646286547183990479e-01,-1.371816247701644897e-01,2.559136748313903809e-01,-4.025108516216278076e-01,1.220054645091295242e-02,2.049449272453784943e-02,-4.453980550169944763e-02,2.951897680759429932e-03,-2.689025104045867920e-01,-1.814263164997100830e-01,-6.435605138540267944e-02,1.442965958267450333e-02,-4.684729874134063721e-02,2.179131060838699341e-01,-1.401702594012022018e-02,-9.638442099094390869e-02,-1.116636544466018677e-01,-4.056563228368759155e-02,2.070007920265197754e-01,4.619129002094268799e-01,2.403168380260467529e-01,-1.119550615549087524e-01,2.324048578739166260e-01,-5.092971026897430420e-02,-2.301762625575065613e-02,-9.469307214021682739e-02,-7.531894743442535400e-02,8.631508052349090576e-02,-2.206835709512233734e-02,-1.113181747496128082e-02,1.943708062171936035e-01,-1.685137450695037842e-01,-1.296464353799819946e-01,2.058820426464080811e-01,-2.841344475746154785e-01,-2.855062782764434814e-01,2.350734174251556396e-01,-2.071386277675628662e-01,-3.492041826248168945e-01,-2.383303195238113403e-01,-2.747452631592750549e-02,-1.712128669023513794e-01,4.431528225541114807e-02,8.092490583658218384e-02,-7.620872929692268372e-03,-1.305788308382034302e-01,2.310895174741744995e-02,-1.576072871685028076e-01,-1.398380100727081299e-02,-8.654992282390594482e-02,-5.305382423102855682e-03,-1.198978275060653687e-01,-1.668782085180282593e-01,-9.688963741064071655e-02,2.496138028800487518e-02,-4.115874469280242920e-01,7.818461209535598755e-02,-5.658275261521339417e-02,9.091214835643768311e-02,-1.670246571302413940e-01,1.375607699155807495e-01,-5.197346210479736328e-01,-2.069578319787979126e-02,-2.525206208229064941e-01,-1.234366297721862793e-01,-1.328996568918228149e-01,-3.867430984973907471e-02,-3.771544992923736572e-01,-4.754990711808204651e-02,-3.621340543031692505e-02,-9.949924796819686890e-02,-7.752574235200881958e-02,-3.997875154018402100e-01,-1.683110743761062622e-01,-7.754242420196533203e-02,1.632658392190933228e-01,-1.323796808719635010e-01,-4.040710330009460449e-01,8.938786387443542480e-02,4.514848440885543823e-02,8.561855554580688477e-02,-2.586956620216369629e-01,7.258445769548416138e-02,-5.743217468261718750e-02,9.886942803859710693e-03,-2.959508001804351807e-01,2.928098291158676147e-02,7.604689151048660278e-02,-1.381191015243530273e-01,-3.970135748386383057e-01,-1.258512139320373535e-01,-7.569049298763275146e-02,-2.437839508056640625e-01,2.385589182376861572e-01,-5.988359451293945312e-03,-2.065135538578033447e-02,2.609412074089050293e-01,-2.738673686981201172e-01,-1.257553249597549438e-01,1.783650740981101990e-02,-1.654778569936752319e-01,3.732274845242500305e-02,-6.662701815366744995e-02,-3.345460165292024612e-03,7.477622479200363159e-02,-9.661945700645446777e-02,-4.843772202730178833e-02,8.959902822971343994e-02,3.665755391120910645e-01,-2.945946529507637024e-02,4.951504245400428772e-02,-1.063089966773986816e-01,-8.754054456949234009e-02,-1.224388182163238525e-01,9.731303155422210693e-02,1.346556469798088074e-03,-1.688403785228729248e-01,-1.164961606264114380e-01,-1.706767827272415161e-02,1.884557865560054779e-02,-1.220811307430267334e-01,-1.639826297760009766e-01,-4.012087583541870117e-01,-4.971524327993392944e-02,-1.024912893772125244e-01,-2.337903082370758057e-01,-7.373943924903869629e-02,-2.376717031002044678e-01,-1.320004910230636597e-01,-7.751167565584182739e-02,-1.294984370470046997e-01,-1.950246393680572510e-01,-1.493398547172546387e-01,-9.217238426208496094e-02,1.272172927856445312e-01,-7.739442586898803711e-02,-6.915071606636047363e-02,-1.033462360501289368e-01,-6.102490797638893127e-02,1.006505712866783142e-01,-6.913111805915832520e-01,-2.686587572097778320e-01,8.741747587919235229e-02,-9.337397292256355286e-03,-4.271381068974733353e-03,-1.711282879114151001e-01,-1.707279384136199951e-01,1.986352354288101196e-01,-2.587677240371704102e-01
-8.422680944204330444e-02,2.210993506014347076e-02,-7.236251980066299438e-02,-9.495499730110168457e-02,-5.146214738488197327e-02,-4.444040358066558838e-03,3.480514138936996460e-02,-8.458576351404190063e-02,1.508000958710908890e-02,-7.445473968982696533e-02,1.465560402721166611e-02,-7.236753404140472412e-02,-9.021438308991491795e-04,3.298383206129074097e-02,-5.285182967782020569e-02,-2.033707126975059509e-02,-3.631595522165298462e-02,-3.396005136892199516e-03,-6.863058358430862427e-02,3.816499933600425720e-02,-3.412600979208946228e-02,-1.209076792001724243e-01,2.841088175773620605e-02,-6.635034829378128052e-02,-8.903542160987854004e-02,-4.519761353731155396e-02,-4.940674453973770142e-02,-8.758881688117980957e-02,-1.290369629859924316e-01,-3.591845557093620300e-02,-4.052399843931198120e-02,-9.914292395114898682e-02,-7.785134017467498779e-02,-1.165054216980934143e-01,-2.638325840234756470e-02,-6.038832291960716248e-02,-6.163821369409561157e-02,-7.527171820402145386e-02,-4.033442214131355286e-02,-8.901756256818771362e-03,7.568046450614929199e-03,-3.517523780465126038e-02,2.065473794937133789e-02,-1.031942479312419891e-02,-1.077498868107795715e-01,-1.919398456811904907e-02,-1.790102384984493256e-02,6.023472547531127930e-02,3.602256625890731812e-02,-1.721986010670661926e-02,-9.824598580598831177e-02,-8.221155963838100433e-03,-1.581385172903537750e-02,-7.167421281337738037e-02,-7.021813839673995972e-02,3.259405866265296936e-02,-4.281784594058990479e-02,-5.384438484907150269e-02,1.329529564827680588e-02,6.019213236868381500e-03,-1.024987846612930298e-01,-1.279442459344863892e-01,-6.122987344861030579e-02,-8.438128046691417694e-03,2.969258092343807220e-02,5.589564889669418335e-02,-5.438631027936935425e-02,-1.720757782459259033e-02,-5.622869729995727539e-02,-4.259116202592849731e-02,-1.125983968377113342e-01,-1.807728223502635956e-02,4.528167191892862320e-03,-1.155648529529571533e-01,2.634418429806828499e-03,3.471618145704269409e-02,1.526978798210620880e-02,-1.031642258167266846e-01,4.229409247636795044e-02,-9.368228167295455933e-02,-5.872416775673627853e-03,-8.409430831670761108e-02,6.062610540539026260e-03,-9.022536687552928925e-03,-7.788420468568801880e-02,4.001022875308990479e-02,-3.278090059757232666e-02,-7.233842741698026657e-03,-1.092902943491935730e-02,-4.694692045450210571e-02,-3.486139699816703796e-02,-5.442194640636444092e-03,-1.746611483395099640e-02,3.096477594226598740e-03,3.078643465414643288e-03,8.825209923088550568e-03,-2.589519508183002472e-02,-1.083484292030334473e-02,1.943756826221942902e-02,-4.898526519536972046e-02,-5.388820916414260864e-02,-3.827754035592079163e-02,-1.888233050704002380e-02,-2.553106658160686493e-02,-7.822889834642410278e-02,3.330912068486213684e-02,-1.253094971179962158e-01,-4.717733711004257202e-02,1.120951678603887558e-02,7.046022266149520874e-02,-1.789483614265918732e-02,5.126357078552246094e-03,2.158015966415405273e-02,-8.359127491712570190e-02,-4.158914089202880859e-02,-9.586727619171142578e-02,-1.736032962799072266e-02,-1.065451428294181824e-01,-4.483763128519058228e-02,6.076833605766296387e-02,-2.724072197452187538e-03,-7.675738632678985596e-02,-5.773928388953208923e-02,-2.327029034495353699e-02,-6.966745853424072266e-02,-5.812380462884902954e-02,1.186588034033775330e-02,-1.917443238198757172e-02,-6.996336579322814941e-02,-5.533294752240180969e-02,-3.753701597452163696e-02,-8.977206423878669739e-03,-9.514303505420684814e-02,-4.529988765716552734e-02,-2.686148323118686676e-02,1.605526357889175415e-02,5.703308270312845707e-04,-9.682960808277130127e-03,-5.899072438478469849e-02,-1.122509874403476715e-02,-4.687337949872016907e-02,-3.317660093307495117e-02,-1.189274061471223831e-02,5.051734298467636108e-02,-2.169947512447834015e-02,5.723136477172374725e-03,5.962281487882137299e-03,-8.931585401296615601e-02,-4.373415187001228333e-02,-8.522547781467437744e-02,-9.620234370231628418e-02,3.810584545135498047e-02,-6.175944209098815918e-02,-1.059240400791168213e-01,-7.334078103303909302e-02,-3.473892807960510254e-02,-1.659180410206317902e-02,-3.223575651645660400e-02,-3.573197871446609497e-02,2.741445600986480713e-02,-9.188116341829299927e-02,4.253842402249574661e-03,-4.496299102902412415e-02,-4.577491432428359985e-02,-6.588768213987350464e-02,2.822852879762649536e-02,1.260985620319843292e-02,-3.874489106237888336e-03,-4.297839477658271790e-02,-5.223263055086135864e-02,-4.433557763695716858e-02,-2.999649569392204285e-02,-6.559605896472930908e-02,-7.630690932273864746e-02,-8.832381665706634521e-02,-8.719365298748016357e-02,-8.886994421482086182e-02,-4.283227026462554932e-02,-3.753212839365005493e-02,-1.513287425041198730e-02,-1.872233487665653229e-02,-3.089796006679534912e-02,-4.805050790309906006e-02,-2.545632421970367432e-03,9.514063596725463867e-03,-8.648515492677688599e-02,-1.608040928840637207e-02,-4.227721318602561951e-02,-5.721017345786094666e-02,-3.731985017657279968e-02,-3.226265683770179749e-02,5.033427104353904724e-02,-2.429404994472861290e-03,2.549480088055133820e-02,4.449036344885826111e-02,1.473139040172100067e-03,-3.556495532393455505e-02,-1.133475974202156067e-01,-1.285573095083236694e-02,-2.102153562009334564e-02,6.608686409890651703e-03,3.160031884908676147e-02,-1.645320653915405273e-02,1.660564448684453964e-03,-1.297963410615921021e-01,-4.179046675562858582e-02,-8.136052638292312622e-02,-8.032622188329696655e-02,2.917383611202239990e-02,-2.121310867369174957e-02,-2.777623385190963745e-02,-9.834729880094528198e-02,-2.472896501421928406e-02,4.782573133707046509e-02,-1.089953351765871048e-02,4.010366648435592651e-02,2.696834318339824677e-02,5.909060686826705933e-02,3.575898706912994385e-02,-1.026052609086036682e-01,-6.735223531723022461e-02,-3.334034979343414307e-02,-4.751633107662200928e-02,-1.259418874979019165e-01,-7.141587883234024048e-02,4.039129987359046936e-02,-7.537651807069778442e-02,2.012260071933269501e-02,-3.114970773458480835e-02,-1.775980740785598755e-02,1.737891882658004761e-02,-7.179243862628936768e-02,-5.260558426380157471e-02,-1.911483705043792725e-02,-2.678400464355945587e-02,-5.939079448580741882e-02,-3.129156306385993958e-02,-1.439050491899251938e-02,-7.485548406839370728e-02,-7.401870936155319214e-02,-3.041493706405162811e-02,-1.709233969449996948e-02,-3.072911407798528671e-03,-1.741093769669532776e-02,-1.123227477073669434e-01,-7.741775363683700562e-02,-1.726986095309257507e-02,3.218530863523483276e-02,-5.425763875246047974e-02,-1.888504251837730408e-02,-6.140528991818428040e-02,2.451660484075546265e-02,-5.691185593605041504e-03,-1.403460279107093811e-02,4.147423803806304932e-02,-3.019697777926921844e-02
-2.622730471193790436e-02,-5.507047101855278015e-02,-3.433682769536972046e-02,-5.827770009636878967e-02,-6.742892321199178696e-03,5.415701121091842651e-02,-5.374735593795776367e-02,-2.759816823527216911e-03,-5.344586446881294250e-02,-7.340523600578308105e-02,-6.149425730109214783e-02,-2.118875272572040558e-02,-3.854386135935783386e-02,-7.188189774751663208e-02,2.564503345638513565e-03,1.637234166264533997e-02,2.780193835496902466e-02,-4.131450504064559937e-02,-4.900240805000066757e-03,-3.544910252094268799e-02,-5.308412015438079834e-03,-1.206749454140663147e-01,-5.140518397092819214e-02,-4.824998974800109863e-02,-1.210017427802085876e-01,-5.330874770879745483e-02,-1.117927487939596176e-02,-3.583549708127975464e-02,-5.962563306093215942e-02,-3.457933664321899414e-02,9.285703301429748535e-03,-1.645128987729549408e-02,-5.292385071516036987e-02,-5.916934460401535034e-02,-1.666060835123062134e-02,-2.247358486056327820e-02,-6.885923445224761963e-02,-2.397858723998069763e-02,-6.928158551454544067e-02,-7.695487886667251587e-02,9.298145771026611328e-03,-1.029099822044372559e-01,3.772484511137008667e-02,-6.055968999862670898e-02,-9.711691737174987793e-02,-1.225449889898300171e-02,-9.893734753131866455e-02,5.280525237321853638e-02,5.933881551027297974e-02,-5.193893983960151672e-02,-8.136891573667526245e-02,-1.629046280868351460e-03,-5.308176949620246887e-02,-3.427398949861526489e-02,-2.548301592469215393e-03,-2.441013045608997345e-02,-4.206932336091995239e-02,1.625502854585647583e-02,-4.659413546323776245e-02,-2.308557927608489990e-02,-8.735249750316143036e-03,-1.296571046113967896e-01,-5.317412316799163818e-02,-1.103594750165939331e-01,-3.672398999333381653e-02,-3.115394711494445801e-02,-1.345764845609664917e-02,-2.964730374515056610e-02,-5.729404091835021973e-02,-4.824783653020858765e-02,-7.079552114009857178e-02,-1.513070613145828247e-02,-8.317177742719650269e-02,-4.341415315866470337e-02,9.398008696734905243e-03,-3.081878088414669037e-02,-4.975505638867616653e-03,-1.187990531325340271e-01,5.433934181928634644e-02,-4.676248878240585327e-02,-7.282352540642023087e-03,-7.310440391302108765e-02,-2.056989818811416626e-02,2.361552417278289795e-02,-7.690849900245666504e-02,4.556237906217575073e-02,-5.265635624527931213e-02,-4.812366887927055359e-02,5.932013038545846939e-03,-3.663757443428039551e-02,-9.998729079961776733e-02,-8.699025213718414307e-02,-4.550056904554367065e-02,-2.318115718662738800e-02,4.045976325869560242e-02,-5.345918983221054077e-02,-7.423134148120880127e-02,-6.407623738050460815e-02,-2.140910178422927856e-02,2.006226032972335815e-02,-3.113511018455028534e-02,-1.000726129859685898e-03,1.355619262903928757e-02,-2.844408713281154633e-02,-1.970547623932361603e-02,-3.140356391668319702e-02,-7.414494454860687256e-02,5.157676339149475098e-02,-6.083804368972778320e-02,-3.025472164154052734e-03,-8.467583358287811279e-02,4.918552935123443604e-03,4.054303094744682312e-02,-6.353607773780822754e-02,1.757012307643890381e-02,-2.879159897565841675e-02,-1.651400886476039886e-02,-7.621632516384124756e-02,8.384756743907928467e-03,3.404410928487777710e-02,1.800952851772308350e-02,-3.086048923432826996e-02,-8.092800527811050415e-02,-8.290068060159683228e-02,-5.280495062470436096e-02,-2.228760719299316406e-02,5.698605626821517944e-02,2.643666230142116547e-02,-5.684699863195419312e-02,3.233272582292556763e-02,2.247577160596847534e-02,-4.693833366036415100e-02,-1.158533617854118347e-01,-5.717696249485015869e-02,-4.545445740222930908e-02,-1.655922085046768188e-02,-5.835606530308723450e-02,1.447702199220657349e-02,-7.111476361751556396e-02,-4.061739146709442139e-02,3.739812970161437988e-02,-1.167983189225196838e-02,-3.859693929553031921e-02,5.621291697025299072e-03,6.348926108330488205e-03,-3.059566952288150787e-02,-9.650936722755432129e-02,-8.124957233667373657e-02,-4.403734207153320312e-02,-1.641703583300113678e-02,-3.040570393204689026e-02,-7.366492599248886108e-02,-1.442542858421802521e-02,-1.213727518916130066e-01,1.676082052290439606e-02,5.927057564258575439e-02,-2.039553411304950714e-02,-3.760138899087905884e-02,4.246886237524449825e-04,-5.411638692021369934e-02,-2.216392755508422852e-02,2.416724897921085358e-02,3.233782947063446045e-02,-1.919822581112384796e-02,-3.110480494797229767e-02,4.976367205381393433e-02,-7.752745598554611206e-02,-1.169078722596168518e-01,-9.085471928119659424e-02,6.142287515103816986e-03,-5.172894150018692017e-02,-5.916988849639892578e-02,-1.124010831117630005e-01,-5.142537131905555725e-02,1.850777864456176758e-02,-1.124040335416793823e-01,-9.398783743381500244e-02,-1.060487329959869385e-02,3.024049103260040283e-03,-2.298736711964011192e-03,-1.911183632910251617e-02,-2.704963833093643188e-02,4.189349338412284851e-02,4.773537628352642059e-03,-6.196723505854606628e-02,-7.292629033327102661e-02,5.902993679046630859e-02,-7.383639365434646606e-02,-7.704383879899978638e-02,4.509967565536499023e-02,-8.174743503332138062e-02,2.227820642292499542e-02,7.157899904996156693e-03,5.326336994767189026e-02,-7.182151079177856445e-03,-6.605310831218957901e-03,-5.260531604290008545e-02,-1.199513748288154602e-01,-8.890211582183837891e-03,-4.103256855159997940e-03,5.129555240273475647e-02,4.281599819660186768e-02,-1.924729347229003906e-02,-1.959245651960372925e-02,-7.777842879295349121e-02,-1.201984584331512451e-01,-3.476706519722938538e-02,-1.065678428858518600e-02,4.868693649768829346e-02,3.567660972476005554e-02,-9.938135743141174316e-02,-4.726177453994750977e-02,1.367628341540694237e-03,-3.658925741910934448e-02,-4.032076150178909302e-02,-4.060655087232589722e-02,-9.358406998217105865e-03,5.360422283411026001e-02,-3.644749522209167480e-02,-4.477283358573913574e-02,-4.216595739126205444e-02,-5.564083904027938843e-02,4.335380345582962036e-02,-1.023572459816932678e-01,-7.950706034898757935e-02,1.114892959594726562e-02,-1.046053692698478699e-01,-2.329118363559246063e-02,-6.849758327007293701e-02,-4.459393396973609924e-02,5.298221856355667114e-02,-6.295323371887207031e-03,-3.852113336324691772e-02,-6.963482499122619629e-02,-6.440777331590652466e-02,-4.839809611439704895e-02,-3.168387804180383682e-03,-5.690135434269905090e-02,-4.852719604969024658e-02,-4.098939895629882812e-02,-3.271672502160072327e-02,-3.385592997074127197e-02,-1.057797446846961975e-01,-5.050453171133995056e-02,-7.627045363187789917e-02,-1.022673025727272034e-02,-6.478318572044372559e-02,-1.833977364003658295e-02,-1.829943992197513580e-02,3.218170721083879471e-03,7.609896827489137650e-03,-1.713444292545318604e-02,1.703498512506484985e-02,1.740337163209915161e-02,-1.590874791145324707e-02,-8.869168162345886230e-02
-1.694069057703018188e-02,-6.383516639471054077e-02,5.860250443220138550e-02,-1.447236388921737671e-01,2.877162769436836243e-02,2.807122655212879181e-02,-2.193755283951759338e-02,-1.470779776573181152e-01,4.398191347718238831e-03,-7.973340153694152832e-02,-2.915291488170623779e-02,-4.679097235202789307e-02,-1.817365176975727081e-02,-1.072626635432243347e-01,2.970058470964431763e-03,-6.454908847808837891e-02,-1.296188682317733765e-02,-6.239243224263191223e-02,-8.296003937721252441e-02,2.340921945869922638e-02,-5.635653063654899597e-02,-3.608212992548942566e-02,1.002796366810798645e-02,5.222358275204896927e-03,-1.169181428849697113e-02,4.535074345767498016e-03,-7.796739041805267334e-02,-3.753918409347534180e-02,-3.176208958029747009e-02,-6.484430283308029175e-02,7.451275829225778580e-03,1.968482509255409241e-02,-1.195941716432571411e-01,-6.827257573604583740e-02,-1.639791647903621197e-03,-1.253689378499984741e-01,-1.375197321176528931e-01,-5.843173339962959290e-02,-8.555345237255096436e-03,-5.120928213000297546e-02,-1.822681725025177002e-02,-1.161937713623046875e-01,-1.860406622290611267e-02,-7.931242883205413818e-02,-6.895837932825088501e-02,-7.286665495485067368e-03,-1.113087534904479980e-01,-3.247140347957611084e-02,1.958050951361656189e-02,-8.794464170932769775e-03,-7.233686000108718872e-02,-1.536886394023895264e-02,-4.467597603797912598e-02,-1.294182687997817993e-01,-3.715227171778678894e-02,3.100135130807757378e-03,1.095517724752426147e-02,-7.572896778583526611e-02,1.623252592980861664e-02,-9.243423119187355042e-03,8.717028051614761353e-02,-1.250212341547012329e-01,-3.511442104354500771e-03,-6.081162020564079285e-02,1.767828129231929779e-02,-9.571981430053710938e-02,-2.274646982550621033e-02,2.760904654860496521e-02,3.863831982016563416e-02,-1.552294194698333740e-02,1.007308997213840485e-02,2.335986867547035217e-02,-9.283774532377719879e-03,-1.136805564165115356e-01,3.254323452711105347e-02,-4.575078934431076050e-02,-1.138595566153526306e-01,-7.415578514337539673e-02,-2.463749982416629791e-02,-1.049651647917926311e-03,-9.421147406101226807e-02,-1.009672805666923523e-01,1.140467356890439987e-02,-4.929031804203987122e-02,-1.623300835490226746e-02,-1.102380752563476562e-01,-5.241978913545608521e-02,-1.276450157165527344e-01,-8.438080549240112305e-02,-3.219714388251304626e-02,-7.933651655912399292e-02,-6.925629079341888428e-02,-1.734494790434837341e-02,-3.402688726782798767e-02,-1.059583947062492371e-01,2.213505096733570099e-02,2.862526103854179382e-02,-4.255179688334465027e-02,-3.123359940946102142e-02,-1.228750795125961304e-01,-3.080066293478012085e-02,-1.228650510311126709e-01,-1.530452817678451538e-01,-7.119815796613693237e-02,-1.075175032019615173e-01,7.731639314442873001e-03,-1.032025143504142761e-01,2.346011437475681305e-02,3.184642875567078590e-03,1.319224247708916664e-03,-1.829214952886104584e-02,6.418765336275100708e-02,-1.755490340292453766e-02,-3.811297565698623657e-02,7.995031028985977173e-02,2.465087920427322388e-02,-2.726850844919681549e-02,-3.027094900608062744e-02,2.215774357318878174e-02,5.091801867820322514e-04,6.645450741052627563e-02,-1.467212685383856297e-03,2.341277524828910828e-02,-6.705137342214584351e-02,-1.422837958671152592e-03,-5.477146804332733154e-02,4.269666224718093872e-02,-4.494793340563774109e-02,-9.305510669946670532e-02,-8.907308429479598999e-02,-7.967010140419006348e-02,-1.443272363394498825e-02,-2.529329620301723480e-02,7.869908958673477173e-02,3.143864870071411133e-02,-4.361970722675323486e-02,-8.861988782882690430e-02,-1.785634900443255901e-03,2.769540250301361084e-02,-5.844205245375633240e-02,5.392380803823471069e-02,-1.091012954711914062e-01,-1.074590161442756653e-02,5.494173988699913025e-02,-1.899122842587530613e-03,-4.623335227370262146e-02,-4.435872659087181091e-02,-9.688438475131988525e-02,-4.950163513422012329e-02,-6.950614601373672485e-02,8.343800157308578491e-02,1.452605426311492920e-02,-5.013804137706756592e-02,-7.118613272905349731e-02,-4.493296518921852112e-02,-1.794787310063838959e-02,-4.385076463222503662e-02,-4.186950996518135071e-02,-1.690705865621566772e-02,9.527912735939025879e-02,-1.467029191553592682e-02,-6.558376550674438477e-02,-3.336028754711151123e-02,1.958006434142589569e-02,-6.810817122459411621e-02,-3.755706921219825745e-02,-5.146416276693344116e-02,-1.554641593247652054e-02,-3.547162190079689026e-02,-8.684833534061908722e-03,6.657832302153110504e-03,-2.597114443778991699e-02,-5.086115375161170959e-02,-1.662465557456016541e-02,9.616560302674770355e-03,-1.509838998317718506e-01,-1.091107167303562164e-02,-3.796611726284027100e-02,2.419141586869955063e-03,-1.114311516284942627e-01,2.396457828581333160e-02,-6.087986007332801819e-02,-3.524116799235343933e-02,-6.630298495292663574e-02,-8.660794794559478760e-02,2.613562345504760742e-02,-6.764458864927291870e-02,-8.293583989143371582e-03,-9.899280220270156860e-02,-4.152299463748931885e-02,-9.613753296434879303e-03,-6.870353966951370239e-02,-6.715872138738632202e-02,7.987726479768753052e-02,2.769584394991397858e-02,-7.442680746316909790e-02,-1.538521051406860352e-02,2.848377823829650879e-02,-2.807927131652832031e-02,-1.175152510404586792e-01,-3.650018572807312012e-02,-4.939395561814308167e-02,-5.254429578781127930e-02,-7.928389310836791992e-02,-5.557044222950935364e-02,1.311265025287866592e-02,2.363368123769760132e-02,-1.373938173055648804e-01,-1.626597195863723755e-01,3.168592229485511780e-02,3.727054223418235779e-02,-7.504194974899291992e-02,-7.284072227776050568e-03,-1.053500026464462280e-01,1.042447704821825027e-02,7.999735325574874878e-02,5.695196986198425293e-02,-8.595199137926101685e-02,-1.464805006980895996e-01,-5.454052239656448364e-02,-3.677301108837127686e-02,-9.391696751117706299e-02,4.042676836252212524e-02,-1.552720181643962860e-02,-8.859882503747940063e-02,-1.192463785409927368e-01,-4.960328713059425354e-02,-2.665215544402599335e-02,-5.766491219401359558e-02,-3.958598896861076355e-02,-1.867084205150604248e-02,-4.690523445606231689e-02,1.129114720970392227e-02,1.689594355411827564e-03,-3.749839961528778076e-02,-1.566970720887184143e-02,-4.828393459320068359e-02,-5.173974856734275818e-02,-1.294141411781311035e-01,-1.875072345137596130e-02,-4.626606777310371399e-02,-9.193231165409088135e-02,-1.234661228954792023e-02,-9.657119214534759521e-02,-5.168868973851203918e-02,-1.733445376157760620e-02,-3.882062155753374100e-03,-3.915205225348472595e-02,-2.256972948089241982e-03,-6.314294040203094482e-02,-4.521023854613304138e-02,4.379059374332427979e-02,-8.095332980155944824e-02,-3.384887054562568665e-02,4.520893469452857971e-02,-1.582695171236991882e-02
-2.623888254165649414e-01,-3.455780744552612305e-01,2.401288002729415894e-01,-3.955348730087280273e-01,3.107230961322784424e-01,4.579143822193145752e-01,3.592268824577331543e-01,-3.630646228790283203e+00,4.269120097160339355e-01,-7.414863109588623047e-01,3.995808586478233337e-02,6.334026455879211426e-01,3.834717273712158203e-01,-2.280169010162353516e+00,1.621915549039840698e-01,1.356831341981887817e-01,-6.494615226984024048e-02,-2.300442904233932495e-01,3.801273107528686523e-01,1.284330040216445923e-01,-2.877502441406250000e-01,2.045565545558929443e-01,4.326608180999755859e-01,-1.058571815490722656e+00,-1.465344429016113281e-01,-4.891989380121231079e-02,-8.542441576719284058e-02,-2.892138063907623291e-01,-1.204346299171447754e+00,-1.258236527442932129e+00,-3.831906244158744812e-02,2.578065693378448486e-01,-2.024060636758804321e-01,1.838766187429428101e-01,-6.475902795791625977e-01,-3.811087310314178467e-01,1.892638057470321655e-01,-2.563454866409301758e+00,5.177542567253112793e-01,3.609948605298995972e-02,-3.677621483802795410e-03,-1.296323776245117188e+00,7.753283381462097168e-01,-1.285188674926757812e+00,-1.452844738960266113e+00,-1.094788789749145508e+00,2.194876521825790405e-01,-1.405505418777465820e+00,1.438486874103546143e-01,1.066273301839828491e-01,-1.016531467437744141e+00,-4.961437880992889404e-01,2.620260119438171387e-01,2.492763698101043701e-01,-2.415546178817749023e+00,3.685632646083831787e-01,-1.958658248186111450e-01,-2.637422561645507812e+00,8.848785161972045898e-01,-1.025080382823944092e-01,-1.834708265960216522e-02,1.520663201808929443e-01,-6.007642149925231934e-01,-1.565948963165283203e+00,6.255040764808654785e-01,-2.493768692016601562e+00,-2.747230231761932373e-01,-5.738552808761596680e-01,-1.331912428140640259e-01,4.202815890312194824e-02,-9.088396430015563965e-01,-1.687792539596557617e-01,-8.695571422576904297e-01,-2.223318815231323242e+00,-3.503718078136444092e-01,-2.239755392074584961e+00,1.325392276048660278e-01,3.213583528995513916e-01,-3.246628522872924805e+00,-3.899600028991699219e+00,-3.625240027904510498e-01,-1.526443064212799072e-01,-1.281111955642700195e+00,5.424510240554809570e-01,5.295031666755676270e-01,-2.241734027862548828e+00,1.216751150786876678e-02,-3.151822805404663086e+00,1.328880339860916138e-01,-5.287456512451171875e-01,-2.315935611724853516e+00,9.771889448165893555e-02,-3.914530754089355469e+00,-2.041646718978881836e+00,2.875678613781929016e-02,5.027562752366065979e-02,-9.782884716987609863e-01,6.449502706527709961e-02,8.411282300949096680e-01,-7.048196792602539062e-01,-1.658375144004821777e+00,2.451128363609313965e-01,1.941439360380172729e-01,-3.814000368118286133e+00,-1.741128787398338318e-02,9.964521229267120361e-02,-5.294312834739685059e-01,-2.796929795295000076e-03,3.202020823955535889e-01,3.976529538631439209e-01,-2.384620428085327148e+00,-3.151970505714416504e-01,7.768484205007553101e-02,-1.580563068389892578e+00,-7.374721169471740723e-01,4.060894846916198730e-01,-1.202018976211547852e+00,7.601801753044128418e-01,-6.641449332237243652e-01,2.300891876220703125e-01,4.916247129440307617e-01,3.066118955612182617e-01,2.427129596471786499e-01,-3.395151793956756592e-01,1.120652630925178528e-01,8.156279921531677246e-01,1.164792418479919434e+00,2.346266806125640869e-01,-7.329044938087463379e-01,3.863133788108825684e-01,2.660453319549560547e-01,9.961925745010375977e-01,-1.497261524200439453e-01,-1.395516753196716309e+00,-3.697092533111572266e-01,-3.555532395839691162e-01,-1.429804801940917969e+00,-3.533267259597778320e+00,-2.113681100308895111e-02,-1.464556306600570679e-01,-4.833253622055053711e-01,-9.610790610313415527e-01,-3.997697830200195312e-01,3.849292695522308350e-01,-1.818937212228775024e-01,-1.944111466407775879e+00,5.844654440879821777e-01,-3.375545263290405273e+00,2.851331233978271484e-01,-3.226073026657104492e+00,-1.588776558637619019e-01,2.124734371900558472e-01,4.334456026554107666e-01,2.142208814620971680e-02,-6.975492089986801147e-02,3.995067775249481201e-01,-3.174104928970336914e+00,1.350101828575134277e-01,-1.225783899426460266e-01,2.945281565189361572e-02,5.175064206123352051e-01,-3.633999228477478027e-01,-1.699725389480590820e+00,4.655122756958007812e-01,4.756881296634674072e-01,-1.217337727546691895e+00,1.425954997539520264e-01,-1.411520957946777344e+00,3.583940565586090088e-01,4.960045516490936279e-01,-5.908837914466857910e-02,2.289194613695144653e-01,2.729588150978088379e-01,4.479271471500396729e-01,-7.254576683044433594e-02,-1.439574807882308960e-01,-1.181132555007934570e+00,-2.094123363494873047e+00,-3.810606598854064941e-01,-3.019377589225769043e-01,-1.558404564857482910e+00,-1.982448101043701172e-01,-2.810371398925781250e+00,-1.913142353296279907e-01,-2.633700609207153320e+00,3.001292981207370758e-02,-8.758441805839538574e-01,8.263075947761535645e-01,-2.043675661087036133e+00,7.112976908683776855e-01,-6.330304592847824097e-02,-1.014834046363830566e+00,-3.180681169033050537e-02,-9.661952406167984009e-02,1.507403794676065445e-02,-1.283070445060729980e-01,-1.802914589643478394e-01,-6.774896383285522461e-01,-1.400334715843200684e+00,-1.840881071984767914e-02,5.014144778251647949e-01,-1.674071192741394043e+00,2.822538912296295166e-01,4.241229295730590820e-01,-6.303673386573791504e-01,-6.459514498710632324e-01,-1.452588081359863281e+00,-8.868420124053955078e-02,-9.042520523071289062e-01,-3.511627018451690674e-01,-1.032785475254058838e-01,-5.117324590682983398e-01,6.580402851104736328e-01,-5.555005073547363281e-01,8.902638554573059082e-01,1.737299710512161255e-01,-3.228046894073486328e-01,2.140668183565139771e-01,-3.563990443944931030e-02,2.533726990222930908e-01,1.701427251100540161e-01,3.771260678768157959e-01,-1.768452525138854980e-01,-2.155019938945770264e-01,1.088141053915023804e-01,-2.697605848312377930e+00,-6.691908836364746094e-02,-1.974944025278091431e-01,-1.159791350364685059e-01,6.855142116546630859e-01,-6.907172203063964844e-01,-3.509878218173980713e-01,-1.018409848213195801e+00,-1.443102002143859863e+00,-1.360438615083694458e-01,-9.487943351268768311e-02,2.511451542377471924e-01,-1.850540041923522949e-01,-4.180979728698730469e-01,4.636411741375923157e-02,8.023924827575683594e-01,1.047985553741455078e+00,5.139113664627075195e-01,7.078386545181274414e-01,4.212923645973205566e-01,-5.838048458099365234e-01,-2.457317709922790527e-01,-8.590003252029418945e-01,-1.386600971221923828e+00,-2.504498958587646484e-01,6.163548231124877930e-01,-4.702785909175872803e-01,-1.417105436325073242e+00,-9.992439299821853638e-02,1.185874462127685547e+00,2.158719450235366821e-01
-8.081118017435073853e-02,-4.038401693105697632e-02,4.376988485455513000e-02,1.729466021060943604e-02,2.170093357563018799e-02,-5.435168743133544922e-02,2.190592698752880096e-03,-1.232527475804090500e-02,4.366202652454376221e-02,-6.391105055809020996e-02,4.283308982849121094e-02,-1.722374558448791504e-02,-5.500542372465133667e-02,-1.132325641810894012e-02,3.476246446371078491e-02,1.680259779095649719e-02,2.802176773548126221e-02,-4.513261467218399048e-02,-4.343820363283157349e-02,1.485108491033315659e-02,-9.544359892606735229e-02,-6.268920004367828369e-02,2.514537237584590912e-02,-4.382628202438354492e-02,-8.239694684743881226e-02,-8.927619084715843201e-03,-6.346183270215988159e-02,-8.067022264003753662e-02,1.492234785109758377e-02,-6.007102876901626587e-02,-1.653318852186203003e-02,-5.432123318314552307e-02,1.894061453640460968e-02,2.471651509404182434e-02,4.558683931827545166e-02,1.138088572770357132e-02,6.221582181751728058e-03,-9.276290237903594971e-02,-4.987137019634246826e-02,-2.837766520678997040e-02,-4.712603986263275146e-03,-5.908580496907234192e-02,-1.075895875692367554e-02,-7.857481390237808228e-02,-7.684797048568725586e-03,8.559464663267135620e-02,-2.289753593504428864e-02,-4.154846072196960449e-02,-5.971350520849227905e-02,-5.611396208405494690e-02,-5.128541588783264160e-02,1.416507293470203876e-03,-5.329896509647369385e-02,-3.516456484794616699e-02,4.474051296710968018e-02,-3.632471489254385233e-04,-1.309996098279953003e-02,8.791629225015640259e-03,-2.104099281132221222e-02,-8.762516081333160400e-02,-4.128376021981239319e-02,-6.545168906450271606e-02,-5.508724600076675415e-02,-3.507022559642791748e-02,5.368158966302871704e-02,-4.016310721635818481e-02,-3.511658310890197754e-02,-1.616090536117553711e-03,3.600680455565452576e-02,5.715174227952957153e-02,-3.543543070554733276e-02,2.716900408267974854e-02,1.436662767082452774e-02,3.030166774988174438e-02,-2.091385796666145325e-02,-3.542773053050041199e-02,2.336976677179336548e-02,2.717308700084686279e-02,-9.318980574607849121e-02,-4.925652593374252319e-02,-9.283610433340072632e-02,1.240073982626199722e-02,2.414938434958457947e-02,-2.366432175040245056e-02,2.423666231334209442e-02,-6.636739242821931839e-03,-7.986874878406524658e-02,1.854543574154376984e-02,5.400880426168441772e-02,-2.401519304839894176e-04,-8.522737771272659302e-02,-4.590263590216636658e-03,1.018517557531595230e-02,1.423572469502687454e-02,-1.011705212295055389e-02,7.756143808364868164e-03,-9.260043501853942871e-03,1.006883219815790653e-03,-2.145493030548095703e-02,-6.261600553989410400e-02,-2.284569665789604187e-02,-2.862827479839324951e-02,-3.712581843137741089e-02,-6.468985229730606079e-02,-4.031820595264434814e-02,-1.166042685508728027e-02,-8.630545437335968018e-02,2.703453786671161652e-02,5.193525552749633789e-02,1.199453976005315781e-02,-9.676712751388549805e-02,-9.462177753448486328e-03,-1.282714586704969406e-02,-7.890999317169189453e-02,3.376442939043045044e-02,-2.258891239762306213e-02,-5.495030432939529419e-02,-5.274161696434020996e-03,-4.266216885298490524e-03,-4.240209609270095825e-02,-3.683581203222274780e-02,-1.297204382717609406e-02,-9.319635480642318726e-02,-2.685741288587450981e-03,-7.958316057920455933e-02,9.168337564915418625e-04,6.435125321149826050e-02,6.995932012796401978e-02,-6.144974753260612488e-02,-3.769855573773384094e-02,-7.553463429212570190e-02,-6.724765896797180176e-02,-3.666793555021286011e-02,-3.525758907198905945e-02,-3.808264806866645813e-02,-6.731540709733963013e-02,-1.361391041427850723e-02,3.018392808735370636e-02,-6.133583839982748032e-03,-1.888218522071838379e-02,6.303971260786056519e-02,-8.053099364042282104e-02,1.076975488103926182e-03,6.921142339706420898e-02,-3.153475001454353333e-02,9.157679975032806396e-03,3.215913660824298859e-03,4.785371012985706329e-03,-5.809443816542625427e-02,1.147504709661006927e-02,-6.737009156495332718e-03,-2.139030396938323975e-02,4.894866049289703369e-02,1.998690329492092133e-02,-2.673816122114658356e-02,2.083709090948104858e-02,-2.945035509765148163e-02,4.834736511111259460e-02,-4.359469190239906311e-02,3.246635198593139648e-02,1.339326892048120499e-02,-8.554926142096519470e-03,-6.277034431695938110e-02,-7.485216110944747925e-02,-5.123365297913551331e-02,2.648999169468879700e-02,-6.484297569841146469e-03,4.907998722046613693e-03,-9.171670675277709961e-02,2.066906355321407318e-02,4.106746986508369446e-02,-6.322558224201202393e-02,-6.976190209388732910e-02,-5.624898895621299744e-02,-1.634870097041130066e-02,-3.020335920155048370e-02,-1.016517449170351028e-02,6.329832249321043491e-04,-4.117133468389511108e-02,-8.145648986101150513e-02,-1.681915484368801117e-02,-1.486205682158470154e-02,3.614907711744308472e-02,-2.841766551136970520e-02,8.381239138543605804e-03,-3.366794437170028687e-02,-2.744989097118377686e-02,-4.853500798344612122e-02,9.536500088870525360e-03,-3.131367266178131104e-02,-8.732800185680389404e-02,4.358029458671808243e-03,1.900538802146911621e-02,-2.838571742177009583e-02,-2.276125364005565643e-02,-8.470400422811508179e-02,-2.220340445637702942e-02,-8.652599155902862549e-02,8.592239767313003540e-02,-7.359354943037033081e-02,-5.309366434812545776e-02,2.688564360141754150e-03,-2.075379341840744019e-02,-7.011752575635910034e-02,-7.725613564252853394e-02,8.854507468640804291e-04,-2.282673679292201996e-02,-7.117008417844772339e-02,-3.225034102797508240e-02,-4.408019036054611206e-02,-1.664182404056191444e-03,-7.224098592996597290e-02,-3.733125329017639160e-02,-6.010861136019229889e-03,-1.093840971589088440e-02,-3.967622178606688976e-04,-5.759475380182266235e-02,6.531588733196258545e-03,-4.581970721483230591e-02,-3.041909635066986084e-02,-2.111394144594669342e-02,1.204252243041992188e-02,5.434054881334304810e-02,-1.044391072355210781e-03,2.191544882953166962e-02,2.529501542448997498e-02,-7.314211688935756683e-03,-2.204892411828041077e-02,-2.809730917215347290e-02,-2.548856660723686218e-02,-1.799172908067703247e-02,2.176421927288174629e-03,-7.389798015356063843e-02,8.219767361879348755e-03,-7.392973452806472778e-02,4.320693388581275940e-02,-9.511504322290420532e-03,4.788754135370254517e-02,2.471655141562223434e-03,-3.960461542010307312e-02,2.010646276175975800e-02,6.067357957363128662e-02,-4.149613156914710999e-02,-7.854103296995162964e-02,-9.072704613208770752e-02,-3.071033954620361328e-02,-2.996368566527962685e-03,-5.336321890354156494e-02,-3.577701374888420105e-02,2.357218600809574127e-02,-5.843498557806015015e-02,1.606641709804534912e-02,4.797776695340871811e-03,1.144050993025302887e-02,6.306397169828414917e-02,-6.402965635061264038e-02
3.801546618342399597e-02,1.269071549177169800e-02,-1.443330384790897369e-02,-1.282556951045989990e-01,-8.588196337223052979e-02,4.440515488386154175e-02,-4.411588236689567566e-02,-5.948883295059204102e-02,9.732353501021862030e-03,-7.784805446863174438e-02,2.540624327957630157e-02,-3.900166228413581848e-02,-1.187884807586669922e-02,-8.229131251573562622e-02,-1.932854531332850456e-03,3.114718012511730194e-02,1.285154372453689575e-02,-2.172308228909969330e-02,1.273999176919460297e-02,-1.381077072437619790e-05,-8.867438882589340210e-02,-1.208147108554840088e-01,-2.817907184362411499e-02,-6.196245551109313965e-03,-4.081767424941062927e-02,-8.469501882791519165e-02,-1.348949316889047623e-02,-2.351703308522701263e-02,-7.475387305021286011e-02,-1.161277443170547485e-01,1.754312962293624878e-02,-3.042043186724185944e-02,-4.422041773796081543e-02,-4.345108196139335632e-02,2.898409962654113770e-02,-3.332572290673851967e-03,1.454566139727830887e-02,-3.684181347489356995e-02,-1.496169809252023697e-02,-1.022416278719902039e-01,-5.688977241516113281e-02,-1.095707267522811890e-01,1.320786029100418091e-02,-1.200136467814445496e-01,-1.343406438827514648e-01,2.312050759792327881e-02,-3.083658218383789062e-02,-1.517101377248764038e-02,4.102599620819091797e-02,-2.287424728274345398e-02,-5.541163310408592224e-02,-4.664335772395133972e-02,-5.180876236408948898e-03,-5.809801816940307617e-02,-6.298714131116867065e-02,-7.645096629858016968e-02,-7.510838657617568970e-02,7.424087263643741608e-03,4.697982594370841980e-02,-2.923016250133514404e-02,-6.559550017118453979e-02,-1.010536476969718933e-01,-9.458544664084911346e-03,-1.278577744960784912e-02,-1.942413509823381901e-03,5.761672556400299072e-02,-3.496311977505683899e-02,-1.797012984752655029e-02,-8.605661988258361816e-02,3.256813436746597290e-02,-4.114137589931488037e-02,-4.453286156058311462e-02,-7.917965948581695557e-02,-3.029021248221397400e-02,3.212092677131295204e-03,-6.889902055263519287e-02,-4.891854897141456604e-02,-2.220956422388553619e-02,3.645818680524826050e-02,-4.516886547207832336e-02,-3.221201896667480469e-02,-4.979647696018218994e-02,-2.112422883510589600e-02,1.594667695462703705e-02,-8.608326315879821777e-02,2.406088635325431824e-02,-6.649737060070037842e-02,-3.440283238887786865e-02,3.014501743018627167e-02,-1.873215287923812866e-02,-2.076618559658527374e-02,-9.869482368230819702e-02,-1.365227252244949341e-02,4.043402150273323059e-02,-4.002489149570465088e-02,-8.850481361150741577e-02,-1.833716593682765961e-02,-2.874709106981754303e-02,-8.473460562527179718e-03,-4.549152031540870667e-02,-9.146915748715400696e-03,2.878824062645435333e-02,-6.292797625064849854e-02,-4.685245081782341003e-02,-6.754903495311737061e-02,-5.818052683025598526e-03,-1.325493007898330688e-01,1.653858274221420288e-02,2.228224650025367737e-02,-3.177284076809883118e-02,-1.050788350403308868e-02,6.052032113075256348e-02,3.478290513157844543e-02,-3.121401928365230560e-02,3.639687597751617432e-02,-4.821024090051651001e-02,-5.287698004394769669e-03,-5.525610223412513733e-02,-1.656141132116317749e-02,5.590067803859710693e-02,4.654816165566444397e-02,-1.246763858944177628e-03,-4.668336734175682068e-02,-5.234741605818271637e-03,-1.364253312349319458e-01,1.695589721202850342e-02,5.207642912864685059e-03,2.763750962913036346e-02,-7.766941189765930176e-02,-3.719191625714302063e-02,3.543520718812942505e-02,-3.134768083691596985e-02,-8.544334024190902710e-02,-8.514664322137832642e-02,-4.271473363041877747e-02,-7.537961006164550781e-03,-1.157005652785301208e-01,5.872618407011032104e-02,-4.797783866524696350e-02,2.219345606863498688e-02,-1.233140286058187485e-02,-2.015721425414085388e-02,-1.058105602860450745e-01,2.015633881092071533e-02,2.788680233061313629e-02,2.729990519583225250e-02,-5.242824554443359375e-02,-7.617024332284927368e-02,-1.075759753584861755e-01,-4.101536422967910767e-02,-9.024488925933837891e-02,5.678563378751277924e-03,-9.999819844961166382e-02,-4.319823905825614929e-02,-5.929187685251235962e-02,-1.401956379413604736e-02,-1.060383096337318420e-01,-3.376383334398269653e-03,-4.703093692660331726e-02,-2.963477745652198792e-02,-4.072421044111251831e-02,2.101536281406879425e-02,1.999441534280776978e-02,3.560578823089599609e-02,-9.214150905609130859e-02,-6.538714468479156494e-02,-6.132295727729797363e-02,-1.969322183867916465e-04,-2.369162626564502716e-02,1.477587153203785419e-03,1.178119797259569168e-02,-1.063455827534198761e-02,-3.288384526968002319e-02,4.863277543336153030e-03,2.636225707828998566e-02,-5.807335302233695984e-02,-9.193667769432067871e-02,-3.059139102697372437e-02,5.363404005765914917e-02,-1.022748202085494995e-01,-1.006872132420539856e-01,-4.339088499546051025e-02,2.571248076856136322e-02,-7.598668336868286133e-02,-4.662042856216430664e-02,-6.051726639270782471e-02,2.182728797197341919e-02,-4.177412018179893494e-02,-4.791335389018058777e-02,1.181677170097827911e-02,-4.680966958403587341e-02,3.649499639868736267e-02,-1.412032637745141983e-02,-6.442935205996036530e-03,-7.225423306226730347e-02,1.863846555352210999e-02,-6.138848885893821716e-02,-8.355712890625000000e-02,-3.355768322944641113e-02,1.742546632885932922e-02,3.815119341015815735e-02,4.778228700160980225e-02,4.984559863805770874e-02,4.119767248630523682e-02,-1.351153701543807983e-01,-4.398030042648315430e-02,-5.633814260363578796e-02,-1.823347806930541992e-02,-1.280465978197753429e-03,2.037003636360168457e-02,-7.647204212844371796e-03,-9.329494088888168335e-02,-7.859758287668228149e-02,-1.908980309963226318e-02,4.633769392967224121e-03,3.308156877756118774e-02,-7.140706479549407959e-02,3.686741739511489868e-02,-2.922937646508216858e-02,-3.643188625574111938e-02,-1.146361380815505981e-01,1.222808659076690674e-02,2.664379775524139404e-03,-8.784940838813781738e-02,-2.907607331871986389e-02,1.434144657105207443e-02,-7.685191929340362549e-02,-1.306870486587285995e-02,-4.311252851039171219e-03,2.498845942318439484e-02,5.457223951816558838e-02,-6.029458343982696533e-02,-1.543035060167312622e-01,-1.260733455419540405e-01,-6.635157018899917603e-02,-2.375638671219348907e-02,-2.155470103025436401e-02,-1.109553035348653793e-03,-1.218956783413887024e-01,-9.927295893430709839e-02,-9.866185486316680908e-03,-9.005438536405563354e-03,-8.887013792991638184e-02,-8.152144402265548706e-02,-5.690077692270278931e-02,-3.478679573163390160e-04,-5.859996750950813293e-02,2.089663781225681305e-02,4.683930426836013794e-03,-8.724557608366012573e-02,-9.704730659723281860e-02,1.946575939655303955e-02,2.275101840496063232e-02,1.671731472015380859e-02,5.607069283723831177e-02,-8.343374729156494141e-02
-4.227320896461606026e-04,2.781767956912517548e-02,-1.931116916239261627e-02,-5.468027666211128235e-02,-9.391573816537857056e-02,3.211849182844161987e-02,-3.275114297866821289e-02,-5.995293706655502319e-02,3.680308535695075989e-02,1.717753522098064423e-02,-2.533060498535633087e-02,2.210488729178905487e-02,-1.266267336905002594e-02,-9.507838636636734009e-03,-5.009675025939941406e-02,-7.835327088832855225e-02,-2.183678746223449707e-02,-9.060648083686828613e-02,-2.394517138600349426e-02,-3.087581321597099304e-02,-8.984829485416412354e-02,-1.051252931356430054e-01,2.812191098928451538e-02,3.593478351831436157e-02,-6.005538254976272583e-02,-3.575222566723823547e-02,-3.382728667929768562e-03,-4.662226885557174683e-02,-4.500550031661987305e-02,-1.070324927568435669e-01,5.918937921524047852e-02,-2.773141302168369293e-02,-1.067858710885047913e-01,-8.456914126873016357e-02,-5.804450809955596924e-02,-7.058060914278030396e-02,-1.899798214435577393e-02,-1.865001209080219269e-02,-3.016791306436061859e-02,-6.566576659679412842e-02,6.018552929162979126e-02,-3.483529761433601379e-02,1.388954371213912964e-02,-1.204579919576644897e-01,-1.257553696632385254e-01,3.965219855308532715e-02,-5.017660930752754211e-02,5.586411803960800171e-02,4.256635904312133789e-03,-8.948647975921630859e-02,-8.869614452123641968e-02,-2.009439654648303986e-02,-2.264348603785037994e-02,-9.973074495792388916e-02,-4.410593956708908081e-02,1.296984311193227768e-02,-8.597142994403839111e-02,5.803651642054319382e-03,4.444774612784385681e-02,-7.420270889997482300e-02,-9.171850979328155518e-02,-5.933491513133049011e-02,-3.134310245513916016e-02,-2.259819069877266884e-03,2.099330164492130280e-02,4.776668548583984375e-02,-8.725715801119804382e-03,-7.709345221519470215e-02,4.202284291386604309e-02,4.818247258663177490e-02,-2.995904162526130676e-02,5.031086131930351257e-02,-8.592604100704193115e-02,-8.073651790618896484e-02,-9.795941878110170364e-04,-5.828895419836044312e-02,3.483367851004004478e-03,-2.524157753214240074e-03,3.339154273271560669e-02,-9.941463172435760498e-02,-9.326710551977157593e-02,-1.059217080473899841e-01,-7.059320923872292042e-04,-6.373769789934158325e-02,-6.260550767183303833e-02,-6.079006195068359375e-02,-1.008663699030876160e-02,-6.980997044593095779e-03,-4.206070303916931152e-02,-3.362051025032997131e-02,-2.010992355644702911e-02,-2.597021125257015228e-02,-8.671117573976516724e-02,7.883089594542980194e-03,-6.836730986833572388e-02,-8.203994482755661011e-02,-2.789219468832015991e-02,-2.692375890910625458e-02,-4.951765760779380798e-02,2.375321090221405029e-02,-3.404371440410614014e-02,-3.440600261092185974e-02,-5.876144766807556152e-02,8.121177554130554199e-03,-5.329839140176773071e-02,9.720178786665201187e-04,-4.863624274730682373e-02,-2.256123721599578857e-02,-7.138664275407791138e-02,-3.191462531685829163e-02,-9.133889339864253998e-03,2.993039041757583618e-02,1.987393712624907494e-03,-5.569815635681152344e-02,-4.396951943635940552e-02,-9.053844213485717773e-02,-5.568188801407814026e-02,-2.184305712580680847e-02,-5.176908522844314575e-02,5.048169940710067749e-02,6.812530010938644409e-02,-3.434378188103437424e-03,-1.352766454219818115e-01,-6.178171560168266296e-02,-1.074554324150085449e-01,4.706091433763504028e-02,6.337920203804969788e-03,1.416747085750102997e-02,1.583128981292247772e-02,3.129323571920394897e-02,-5.523258820176124573e-02,-1.067139357328414917e-01,-8.552220463752746582e-02,-8.192040026187896729e-02,-4.286040365695953369e-02,5.770087987184524536e-02,-6.049012392759323120e-02,-2.289624512195587158e-02,-1.022000536322593689e-01,1.384478248655796051e-02,7.453159242868423462e-02,-8.841399848461151123e-02,-3.903873637318611145e-02,-2.648539841175079346e-03,-4.972393065690994263e-02,9.267469868063926697e-03,-2.189700026065111160e-03,-4.280192032456398010e-02,-1.035504508763551712e-02,-6.357881426811218262e-02,-9.484322369098663330e-02,-6.154125183820724487e-02,-9.158012270927429199e-02,-4.444896057248115540e-02,7.169264368712902069e-03,-6.664402782917022705e-03,-9.363628923892974854e-02,2.594223991036415100e-02,-2.220924012362957001e-02,3.769123693928122520e-03,1.303268969058990479e-02,-7.276567816734313965e-02,-7.182248518802225590e-04,-1.933827623724937439e-02,-9.304423630237579346e-02,4.578065499663352966e-02,-4.160009697079658508e-02,-6.606368720531463623e-02,-4.200762882828712463e-02,8.381426334381103516e-03,-4.058965668082237244e-02,-4.459413513541221619e-02,-3.435978293418884277e-02,8.456669747829437256e-03,1.981734111905097961e-02,-1.037718951702117920e-01,7.294356357306241989e-03,-9.406928718090057373e-02,5.463629961013793945e-03,-3.145308792591094971e-02,-7.175883650779724121e-02,-6.158828735351562500e-03,3.182303532958030701e-02,-1.593662612140178680e-02,6.280509289354085922e-03,-1.940916292369365692e-02,5.265712738037109375e-03,-6.859298050403594971e-02,-1.393420621752738953e-02,-5.746595561504364014e-03,-1.094802990555763245e-01,-5.958494544029235840e-02,2.872406132519245148e-02,4.004547744989395142e-02,3.880023583769798279e-02,-7.185797672718763351e-03,-9.610334038734436035e-02,-3.298772731795907021e-03,8.167468011379241943e-03,9.937585331499576569e-03,4.693651199340820312e-02,1.622346788644790649e-02,5.989117920398712158e-02,-4.003293439745903015e-02,-1.335638165473937988e-01,-1.453039199113845825e-01,-1.018880531191825867e-01,-6.809392571449279785e-02,3.400878980755805969e-02,-4.966799542307853699e-02,-1.181556731462478638e-01,1.052334718406200409e-02,2.140311524271965027e-03,-4.409392178058624268e-02,1.681536436080932617e-02,-2.386601455509662628e-02,-3.967329114675521851e-02,2.221675962209701538e-02,-1.713143289089202881e-02,-5.111419782042503357e-02,-3.119873069226741791e-02,-3.344798833131790161e-02,6.058517098426818848e-02,-2.482457086443901062e-02,-7.648611441254615784e-03,-5.487702041864395142e-02,-4.686192795634269714e-02,-3.913047723472118378e-03,-1.035843137651681900e-02,2.226370386779308319e-02,-6.062877178192138672e-02,-5.936160311102867126e-02,-7.525750249624252319e-02,-6.573710590600967407e-02,-3.520047664642333984e-02,1.824793219566345215e-02,-3.583769872784614563e-02,1.717663183808326721e-02,-4.654263705015182495e-02,-1.144684180617332458e-01,-4.725226387381553650e-02,-1.824074797332286835e-02,-6.918330490589141846e-02,-3.368486464023590088e-02,-2.216171287000179291e-02,-8.655963838100433350e-02,-6.599918752908706665e-02,-1.445949450135231018e-02,-4.586190916597843170e-03,-4.957446455955505371e-02,-4.930434376001358032e-02,6.228148937225341797e-03,-3.212220221757888794e-02,-8.678700774908065796e-02,-5.926454067230224609e-02,-5.597328022122383118e-02
-6.344245374202728271e-02,-8.502184599637985229e-02,2.979124337434768677e-02,-4.687713831663131714e-02,5.680226534605026245e-02,-4.227919876575469971e-02,-5.946568399667739868e-02,-4.364198073744773865e-02,-8.254997432231903076e-03,2.682431228458881378e-02,1.967691630125045776e-02,3.196883946657180786e-02,1.392969046719372272e-03,-8.474456146359443665e-03,-9.284434467554092407e-02,-9.218019247055053711e-02,1.594242639839649200e-02,2.572107315063476562e-02,-9.368516504764556885e-02,-1.029623299837112427e-02,-2.086440846323966980e-02,1.783075183629989624e-02,5.247698724269866943e-02,-2.858138084411621094e-02,-5.143589526414871216e-02,-2.398123219609260559e-02,1.492873486131429672e-02,-3.772216662764549255e-02,1.345105748623609543e-02,-5.963665992021560669e-02,-8.646851778030395508e-02,5.655523389577865601e-02,3.270541131496429443e-02,7.705554366111755371e-03,-4.269803315401077271e-02,-7.766246050596237183e-02,-3.426139010116457939e-03,1.252051442861557007e-02,-9.959921240806579590e-03,-3.510117903351783752e-02,-5.322571098804473877e-02,2.081955224275588989e-02,4.583722352981567383e-02,-5.212433636188507080e-02,1.420579850673675537e-03,2.898189937695860863e-03,1.736842840909957886e-02,4.457206279039382935e-02,5.145015567541122437e-02,-4.485752433538436890e-02,-8.769626170396804810e-02,-3.257391974329948425e-02,3.918632864952087402e-04,-3.097157552838325500e-02,-5.125353485345840454e-02,3.112752735614776611e-02,2.015730924904346466e-02,-6.324544548988342285e-03,-2.781279385089874268e-03,-3.682236000895500183e-02,-4.783274978399276733e-02,-2.101543731987476349e-02,-5.006656795740127563e-02,-8.181043714284896851e-02,-9.307406842708587646e-03,-4.729144275188446045e-03,-8.711654692888259888e-02,-4.283758252859115601e-02,-6.153078377246856689e-02,4.588929563760757446e-02,7.521316409111022949e-03,-8.220687508583068848e-03,-8.232976496219635010e-02,-1.543980743736028671e-02,1.971984095871448517e-02,6.863008718937635422e-03,-3.868358209729194641e-02,-3.573732078075408936e-02,-5.454593524336814880e-02,6.017617881298065186e-02,2.837093360722064972e-02,-3.774012252688407898e-02,4.711642116308212280e-02,-4.573367536067962646e-03,-7.610713690519332886e-02,-3.748671337962150574e-02,-9.156936407089233398e-02,-5.947575345635414124e-02,-5.390674248337745667e-02,-5.275398865342140198e-02,-7.731769233942031860e-02,1.846411824226379395e-02,-8.335110545158386230e-02,-8.413341827690601349e-03,3.857692331075668335e-02,1.980718970298767090e-02,-6.224028021097183228e-02,-7.021246850490570068e-02,2.721786499023437500e-02,2.347763255238533020e-02,-5.605805665254592896e-02,2.648843824863433838e-02,-6.027572229504585266e-02,-4.797295201569795609e-03,3.420294821262359619e-02,-5.269870162010192871e-02,-3.656089305877685547e-03,-2.203738689422607422e-02,1.112855598330497742e-02,3.641138970851898193e-02,-8.667587488889694214e-02,-5.766439437866210938e-02,-5.797691643238067627e-03,-6.620365381240844727e-02,-3.386721014976501465e-03,-2.432558499276638031e-02,2.020358666777610779e-02,-5.022999644279479980e-02,4.992305301129817963e-03,2.639844268560409546e-02,-2.682632207870483398e-02,-5.002275854349136353e-02,-6.043557822704315186e-02,2.151487022638320923e-02,-2.505992725491523743e-02,1.343794167041778564e-03,5.430780351161956787e-02,-4.199485480785369873e-02,-6.938998401165008545e-02,-1.585483551025390625e-05,-7.669425010681152344e-02,1.549658249132335186e-03,-2.337052673101425171e-02,1.331792911514639854e-03,3.738053143024444580e-02,7.248498732224106789e-04,-2.596603147685527802e-02,5.701825022697448730e-02,1.251854002475738525e-03,-8.180845528841018677e-02,-3.115770965814590454e-02,-6.152775138616561890e-02,1.437527034431695938e-02,-3.413725644350051880e-02,1.640965789556503296e-02,1.933445781469345093e-02,-8.810144662857055664e-02,4.594910889863967896e-03,-2.072912408038973808e-03,-4.662162810564041138e-02,-7.705992460250854492e-02,-4.265941679477691650e-02,8.802746422588825226e-03,-6.002606451511383057e-02,-3.245471045374870300e-02,-1.858450472354888916e-02,-5.919336527585983276e-02,-5.671695247292518616e-02,-3.669446334242820740e-02,-8.819671720266342163e-02,2.353101409971714020e-02,2.966767363250255585e-02,-3.932778909802436829e-02,5.261523276567459106e-02,2.297414466738700867e-02,-2.627073973417282104e-02,-2.605298534035682678e-02,-5.170343816280364990e-02,-7.488495856523513794e-02,-1.737070828676223755e-02,-8.646433800458908081e-02,2.994280122220516205e-02,2.326782979071140289e-02,4.344571381807327271e-02,-7.785377651453018188e-02,-5.323438718914985657e-02,1.579593867063522339e-02,-4.234576970338821411e-02,-7.330717891454696655e-02,-9.263157099485397339e-02,-3.187852725386619568e-02,1.632000505924224854e-02,-6.543872505426406860e-02,-2.684000134468078613e-02,-5.076790973544120789e-02,-1.709667406976222992e-02,-4.008979350328445435e-02,-2.799666672945022583e-02,-7.527946680784225464e-02,2.739486098289489746e-02,3.885537385940551758e-02,-6.427910923957824707e-02,3.695058403536677361e-03,-1.028428133577108383e-02,-4.225332289934158325e-02,-6.122350692749023438e-02,-1.185701880604028702e-02,-6.148233264684677124e-02,3.607944399118423462e-02,-2.091810293495655060e-02,-1.692989468574523926e-02,1.605078577995300293e-04,6.209055334329605103e-02,3.376758098602294922e-02,1.927677914500236511e-02,-7.907839119434356689e-02,2.336602285504341125e-02,-5.348392575979232788e-02,-2.393118292093276978e-02,-8.610418438911437988e-02,3.539191931486129761e-02,3.903808072209358215e-02,-6.683614850044250488e-02,-4.413284361362457275e-02,3.676570206880569458e-02,-8.895456790924072266e-03,-8.157203346490859985e-02,2.662747353315353394e-02,-5.153440684080123901e-02,-4.185402393341064453e-02,1.705686934292316437e-02,7.786907255649566650e-03,1.652853447012603283e-03,-5.170184001326560974e-02,-7.308650761842727661e-02,5.661831051111221313e-02,-1.414300501346588135e-02,-2.594952099025249481e-02,-3.594645857810974121e-02,2.479835413396358490e-02,-5.741439759731292725e-03,-2.760757459327578545e-03,-8.230321854352951050e-02,-4.915861412882804871e-02,8.401485159993171692e-03,8.766553364694118500e-03,1.910779625177383423e-02,-8.629253506660461426e-02,-6.690885871648788452e-02,3.581168502569198608e-02,-8.705005049705505371e-02,4.252063482999801636e-02,-8.848283439874649048e-02,-1.974799297749996185e-02,-8.603168651461601257e-03,3.463247092440724373e-03,-1.367173343896865845e-02,-9.312451630830764771e-02,-5.563893541693687439e-02,-5.387170612812042236e-02,-6.928069889545440674e-02,1.903994195163249969e-02,3.059666603803634644e-02,-2.246288023889064789e-02,1.887144893407821655e-02,-2.512898528948426247e-03
1.314357876777648926e+00,5.537040233612060547e-01,3.022173941135406494e-01,1.145323514938354492e-01,-2.180860936641693115e-01,1.218317151069641113e+00,5.329222083091735840e-01,-3.506240129470825195e+00,1.687664270401000977e+00,3.716860413551330566e-01,-8.080047369003295898e-02,2.996840715408325195e+00,1.006438374519348145e+00,1.036724541336297989e-02,-4.471156597137451172e-01,-6.193137168884277344e-01,1.966505348682403564e-01,-5.585938319563865662e-02,6.124250888824462891e-01,-4.041810929775238037e-01,1.049664735794067383e+00,6.693480610847473145e-01,1.403646111488342285e+00,9.627783894538879395e-01,-8.182862401008605957e-01,-4.529821574687957764e-01,3.338753581047058105e-01,1.580731868743896484e+00,5.384576693177223206e-02,-1.216193512082099915e-01,-2.567518234252929688e+00,6.377897858619689941e-01,1.354080557823181152e+00,3.162039816379547119e-01,5.613686442375183105e-01,4.177502989768981934e-01,5.850068926811218262e-01,-4.597261428833007812e+00,4.414645731449127197e-01,-1.393783330917358398e+00,5.881544202566146851e-02,1.541510373353958130e-01,-9.194226861000061035e-01,-1.010691761970520020e+00,1.358176589012145996e+00,1.800079345703125000e+00,2.267981767654418945e-01,5.535853505134582520e-01,-1.917414218187332153e-01,7.447072267532348633e-01,-4.822508096694946289e-01,-3.965562582015991211e-01,2.233597993850708008e+00,-5.344232320785522461e-01,-1.407552659511566162e-01,8.233644068241119385e-02,-2.149275243282318115e-01,-1.292077541351318359e+00,1.491212964057922363e+00,-5.109224915504455566e-01,9.901720881462097168e-01,2.554360628128051758e-01,-1.373585939407348633e+00,-1.218052029609680176e+00,5.556935071945190430e-01,-1.779170513153076172e+00,-8.426340818405151367e-01,3.058807134628295898e+00,2.050200849771499634e-02,-4.150716215372085571e-02,-1.466836214065551758e+00,2.008247613906860352e+00,1.345533490180969238e+00,-3.403253078460693359e+00,-1.032758355140686035e-01,5.697339177131652832e-01,-2.790939509868621826e-01,-3.173803985118865967e-01,1.064023017883300781e+00,-5.687971115112304688e+00,5.805579423904418945e-01,-3.261722624301910400e-01,-2.917477846145629883e+00,5.308033227920532227e-01,2.158599615097045898e+00,7.390343546867370605e-01,-9.654442667961120605e-01,-3.762983083724975586e+00,4.502365887165069580e-01,-4.112092018127441406e+00,-1.086657404899597168e+00,-2.116099357604980469e+00,-2.057844698429107666e-01,-1.841729640960693359e+00,2.010627835988998413e-01,1.032401561737060547e+00,-8.528327345848083496e-01,3.655665814876556396e-01,1.177455335855484009e-01,-2.106720209121704102e-01,-2.216416835784912109e+00,-2.223015874624252319e-01,-7.723882198333740234e-01,-3.112236738204956055e+00,-1.419636309146881104e-01,5.206438302993774414e-01,1.092104196548461914e+00,1.973364353179931641e-01,4.004980623722076416e-02,-4.001980304718017578e+00,4.432824254035949707e-01,-3.739231824874877930e-01,1.029342293739318848e+00,-4.258253872394561768e-01,-3.691051006317138672e-01,-1.700469851493835449e+00,-2.601132631301879883e+00,9.313024282455444336e-01,7.426477670669555664e-01,3.504866063594818115e-01,1.157738804817199707e+00,6.466618776321411133e-01,-4.249545037746429443e-01,-2.756312847137451172e+00,4.132365435361862183e-02,-6.265618801116943359e-01,-3.539467573165893555e+00,5.546150803565979004e-01,-4.872497320175170898e-01,8.702300190925598145e-01,1.908593177795410156e+00,-3.591743484139442444e-02,2.437280416488647461e-01,-5.318436622619628906e-01,-1.998319268226623535e+00,2.434708833694458008e+00,1.276708841323852539e+00,-2.552643299102783203e+00,2.695928215980529785e-01,1.148444771766662598e+00,-2.234560996294021606e-01,6.407247185707092285e-01,4.504846334457397461e-01,1.090337872505187988e+00,-2.390852421522140503e-01,-2.411168664693832397e-01,4.045022130012512207e-01,-4.933022022247314453e+00,-9.402993917465209961e-01,-2.067982435226440430e+00,1.052114248275756836e+00,-3.844855427742004395e-01,1.464527010917663574e+00,-2.667535245418548584e-01,3.489685356616973877e-01,1.115391969680786133e+00,-2.304886341094970703e+00,2.500410079956054688e-01,-3.408265113830566406e-02,-1.337712526321411133e+00,1.328618764877319336e+00,1.235171079635620117e+00,3.259387314319610596e-01,-2.431838400661945343e-02,-9.931132942438125610e-02,4.050098896026611328e+00,3.621396422386169434e-02,-7.769689708948135376e-02,7.760811448097229004e-01,1.167626976966857910e+00,4.037525057792663574e-01,4.030452668666839600e-02,-1.268045186996459961e+00,4.867728054523468018e-01,4.153954088687896729e-01,-9.095938801765441895e-01,-4.774180799722671509e-02,4.720837473869323730e-01,-4.274707138538360596e-01,4.197803437709808350e-01,-1.222145795822143555e+00,-4.429321885108947754e-01,-4.057404041290283203e+00,1.192704122513532639e-02,-2.091233730316162109e+00,-1.061673238873481750e-01,-2.838319242000579834e-01,-2.304319888353347778e-01,-2.357341527938842773e+00,1.409020870923995972e-01,-2.190983295440673828e+00,-2.005605459213256836e+00,5.918309688568115234e-01,-1.009903326630592346e-01,5.183614492416381836e-01,-3.169517278671264648e+00,-1.052162647247314453e-01,-5.174570083618164062e-01,-2.112912893295288086e+00,-4.298177242279052734e+00,4.212679564952850342e-01,-2.174723386764526367e+00,1.652852654457092285e+00,2.381242513656616211e-01,2.221398353576660156e-01,-6.697913408279418945e-01,-1.857043027877807617e+00,-8.768003582954406738e-01,-5.246031880378723145e-01,2.172187089920043945e+00,7.709628939628601074e-01,9.338984489440917969e-01,2.362928986549377441e-01,-2.988862276077270508e+00,-2.812077999114990234e-01,-6.284974217414855957e-01,8.141010999679565430e-01,1.745003461837768555e+00,-1.592493355274200439e-01,-3.709924519062042236e-01,9.540262818336486816e-02,-6.549493074417114258e-01,5.095653533935546875e-01,7.505561709403991699e-01,-9.869526028633117676e-01,-2.870234966278076172e+00,4.146883189678192139e-01,-3.037148416042327881e-01,7.375239133834838867e-01,-2.625917434692382812e+00,-3.517502844333648682e-01,-2.336974143981933594e+00,-1.593563318252563477e+00,-5.337843894958496094e-01,4.862170219421386719e-01,3.255356550216674805e-01,2.015597105026245117e+00,-6.979404389858245850e-02,-2.498484134674072266e+00,2.520683288574218750e+00,-4.057736992835998535e-01,1.250667333602905273e+00,-2.833073735237121582e-01,8.676605224609375000e-01,5.887568593025207520e-01,-5.330647230148315430e-01,7.500576972961425781e-01,6.243337392807006836e-01,-1.075932383537292480e+00,-8.400383591651916504e-01,1.732135057449340820e+00,-1.546345114707946777e+00,-4.980955123901367188e-01,5.675386786460876465e-01,-1.060501217842102051e+00,1.566598296165466309e+00
