1.744582690298557281e-02,-3.382703987881541252e-03,-2.533813118934631348e-01,3.035037405788898468e-02,4.435672890394926071e-03,-1.084267273545265198e-01,3.867681697010993958e-02,2.286883071064949036e-02,2.236062660813331604e-02,-1.134006142616271973e+00,-5.861456692218780518e-02,1.148836035281419754e-02,4.614230711013078690e-03,2.227779664099216461e-02,-3.554870367050170898e+00,-2.872116677463054657e-02,2.037750091403722763e-03,2.403698116540908813e-02,-9.607612155377864838e-03,-1.705056615173816681e-02,-3.741075277328491211e+00,6.404272466897964478e-02,-7.697511672973632812e+00,2.868678979575634003e-02,3.340892866253852844e-02,2.094694785773754120e-02,-1.027296259999275208e-01,-4.146261215209960938e+00,2.377462387084960938e-02,-1.112883567810058594e+00,-1.005309462547302246e+00,5.171410739421844482e-02,1.338442601263523102e-02,-1.470833420753479004e+00,8.224655874073505402e-03,6.812596321105957031e-02,-2.493443191051483154e-01,-1.034230113029479980e+00,1.026286464184522629e-02,4.614083468914031982e-02,6.251437962055206299e-02,-5.680268630385398865e-02,9.754587709903717041e-02,9.231492131948471069e-02,-8.985623121261596680e-01,-5.430883541703224182e-02,-3.873599171638488770e-01,-3.494925796985626221e-01,-2.942569740116596222e-02,1.375888381153345108e-02,-9.556232690811157227e-01,-1.502801571041345596e-02,-8.403195142745971680e-01,3.776210069190710783e-04,-2.670995518565177917e-02,-3.987537920475006104e-01,-6.158564567565917969e+00,-2.235487103462219238e-02,2.300703525543212891e-02,2.116795629262924194e-02,-7.843065261840820312e-01,-8.883774280548095703e-03,1.429205480962991714e-02,-1.125790877267718315e-03,-4.713239371776580811e-01,-1.789336651563644409e-01,-1.986454986035823822e-02,-5.422997474670410156e-01,6.792431324720382690e-02,3.728474304080009460e-02,5.016076192259788513e-02,-1.083940029144287109e+00,-1.049502864480018616e-01,1.301272027194499969e-02,3.191160410642623901e-02,-6.055537223815917969e+00,-1.027207970619201660e+00,4.771003033965826035e-03,3.100943006575107574e-02,-2.064956724643707275e-02,1.870358735322952271e-02,-1.629404306411743164e+00,5.778326988220214844e-01,-4.056478500366210938e+00,5.440385546535253525e-03,1.472671143710613251e-02,3.740722546353936195e-03,-1.644566841423511505e-02,1.010543584823608398e+00,8.411893248558044434e-02,2.528559230268001556e-02,3.283245861530303955e-01,5.417878150939941406e+00,2.215233743190765381e-01,2.011918835341930389e-02,-1.207371521741151810e-02,3.104351758956909180e-01,-1.304319977760314941e+00,8.418615907430648804e-03,-1.095782279968261719e+00,-4.709803033620119095e-03,-3.616912662982940674e-01,1.644827541895210743e-03,-1.869059920310974121e+00,-4.661211371421813965e-01,1.770234294235706329e-02,-4.867195606231689453e+00,3.458115085959434509e-02,-2.232667431235313416e-02,5.255109310150146484e+00,-1.496781229972839355e+00,-5.436936616897583008e-01,-5.771170258522033691e-01,7.954441942274570465e-03,8.201506137847900391e-01,-5.412430286407470703e+00,4.003236535936594009e-03,-6.035602569580078125e+00,3.092956542968750000e-02,3.633224964141845703e-02,3.220819681882858276e-02,1.975246332585811615e-02,1.003625035285949707e+00,4.257249645888805389e-03,-1.315933942794799805e+00,1.550426892936229706e-02,4.093691334128379822e-02,-1.948425918817520142e-01
